digraph Tree {
node [shape=box, style="filled, rounded", color="black", fontname="helvetica"] ;
edge [fontname="helvetica"] ;
0 [label=<X<SUB>4</SUB> &le; -0.064<br/>squared_error = 165.023<br/>samples = 1297<br/>value = 69.039>, fillcolor="#efaf82"] ;
1 [label=<X<SUB>2</SUB> &le; -0.243<br/>squared_error = 150.74<br/>samples = 933<br/>value = 66.025>, fillcolor="#f0b489"] ;
0 -> 1 [labeldistance=2.5, labelangle=45, headlabel="True"] ;
2 [label=<X<SUB>1</SUB> &le; 0.039<br/>squared_error = 151.24<br/>samples = 441<br/>value = 63.011>, fillcolor="#f1b991"] ;
1 -> 2 ;
3 [label=<X<SUB>1</SUB> &le; -0.459<br/>squared_error = 150.986<br/>samples = 378<br/>value = 61.966>, fillcolor="#f1ba93"] ;
2 -> 3 ;
4 [label=<X<SUB>0</SUB> &le; 27.5<br/>squared_error = 105.275<br/>samples = 29<br/>value = 71.966>, fillcolor="#eeab7a"] ;
3 -> 4 ;
5 [label=<X<SUB>2</SUB> &le; -0.303<br/>squared_error = 101.43<br/>samples = 25<br/>value = 73.64>, fillcolor="#eda876"] ;
4 -> 5 ;
6 [label=<X<SUB>2</SUB> &le; -0.319<br/>squared_error = 1.0<br/>samples = 2<br/>value = 62.0>, fillcolor="#f1ba93"] ;
5 -> 6 ;
7 [label=<squared_error = 0.0<br/>samples = 1<br/>value = 63.0>, fillcolor="#f1b991"] ;
6 -> 7 ;
8 [label=<squared_error = 0.0<br/>samples = 1<br/>value = 61.0>, fillcolor="#f1bc96"] ;
6 -> 8 ;
9 [label=<X<SUB>1</SUB> &le; -0.498<br/>squared_error = 97.357<br/>samples = 23<br/>value = 74.652>, fillcolor="#eda674"] ;
5 -> 9 ;
10 [label=<X<SUB>4</SUB> &le; -0.165<br/>squared_error = 27.778<br/>samples = 9<br/>value = 79.333>, fillcolor="#eb9f68"] ;
9 -> 10 ;
11 [label=<squared_error = 0.0<br/>samples = 3<br/>value = 75.0>, fillcolor="#eda673"] ;
10 -> 11 ;
12 [label=<X<SUB>2</SUB> &le; -0.294<br/>squared_error = 27.583<br/>samples = 6<br/>value = 81.5>, fillcolor="#ea9b62"] ;
10 -> 12 ;
13 [label=<X<SUB>0</SUB> &le; 18.0<br/>squared_error = 14.25<br/>samples = 4<br/>value = 78.5>, fillcolor="#eba06a"] ;
12 -> 13 ;
14 [label=<X<SUB>0</SUB> &le; 5.0<br/>squared_error = 0.222<br/>samples = 3<br/>value = 80.667>, fillcolor="#eb9d64"] ;
13 -> 14 ;
15 [label=<squared_error = 0.0<br/>samples = 2<br/>value = 81.0>, fillcolor="#eb9c64"] ;
14 -> 15 ;
16 [label=<squared_error = 0.0<br/>samples = 1<br/>value = 80.0>, fillcolor="#eb9e66"] ;
14 -> 16 ;
17 [label=<squared_error = 0.0<br/>samples = 1<br/>value = 72.0>, fillcolor="#eeaa7a"] ;
13 -> 17 ;
18 [label=<X<SUB>4</SUB> &le; -0.152<br/>squared_error = 0.25<br/>samples = 2<br/>value = 87.5>, fillcolor="#e89253"] ;
12 -> 18 ;
19 [label=<squared_error = 0.0<br/>samples = 1<br/>value = 87.0>, fillcolor="#e99355"] ;
18 -> 19 ;
20 [label=<squared_error = 0.0<br/>samples = 1<br/>value = 88.0>, fillcolor="#e89152"] ;
18 -> 20 ;
21 [label=<X<SUB>4</SUB> &le; -0.168<br/>squared_error = 118.944<br/>samples = 14<br/>value = 71.643>, fillcolor="#eeab7b"] ;
9 -> 21 ;
22 [label=<X<SUB>1</SUB> &le; -0.47<br/>squared_error = 45.148<br/>samples = 13<br/>value = 74.077>, fillcolor="#eda775"] ;
21 -> 22 ;
23 [label=<X<SUB>3</SUB> &le; -0.205<br/>squared_error = 0.667<br/>samples = 3<br/>value = 81.0>, fillcolor="#eb9c64"] ;
22 -> 23 ;
24 [label=<squared_error = 0.0<br/>samples = 1<br/>value = 80.0>, fillcolor="#eb9e66"] ;
23 -> 24 ;
25 [label=<X<SUB>0</SUB> &le; 18.0<br/>squared_error = 0.25<br/>samples = 2<br/>value = 81.5>, fillcolor="#ea9b62"] ;
23 -> 25 ;
26 [label=<squared_error = 0.0<br/>samples = 1<br/>value = 81.0>, fillcolor="#eb9c64"] ;
25 -> 26 ;
27 [label=<squared_error = 0.0<br/>samples = 1<br/>value = 82.0>, fillcolor="#ea9b61"] ;
25 -> 27 ;
28 [label=<X<SUB>0</SUB> &le; 18.0<br/>squared_error = 39.8<br/>samples = 10<br/>value = 72.0>, fillcolor="#eeaa7a"] ;
22 -> 28 ;
29 [label=<X<SUB>4</SUB> &le; -0.19<br/>squared_error = 44.556<br/>samples = 6<br/>value = 69.667>, fillcolor="#eeae80"] ;
28 -> 29 ;
30 [label=<X<SUB>2</SUB> &le; -0.257<br/>squared_error = 60.222<br/>samples = 3<br/>value = 73.333>, fillcolor="#eda877"] ;
29 -> 30 ;
31 [label=<squared_error = 0.0<br/>samples = 1<br/>value = 64.0>, fillcolor="#f0b78e"] ;
30 -> 31 ;
32 [label=<X<SUB>2</SUB> &le; -0.256<br/>squared_error = 25.0<br/>samples = 2<br/>value = 78.0>, fillcolor="#eca16b"] ;
30 -> 32 ;
33 [label=<squared_error = 0.0<br/>samples = 1<br/>value = 83.0>, fillcolor="#ea995f"] ;
32 -> 33 ;
34 [label=<squared_error = 0.0<br/>samples = 1<br/>value = 73.0>, fillcolor="#eda978"] ;
32 -> 34 ;
35 [label=<X<SUB>4</SUB> &le; -0.19<br/>squared_error = 2.0<br/>samples = 3<br/>value = 66.0>, fillcolor="#f0b489"] ;
29 -> 35 ;
36 [label=<squared_error = 0.0<br/>samples = 2<br/>value = 65.0>, fillcolor="#f0b68c"] ;
35 -> 36 ;
37 [label=<squared_error = 0.0<br/>samples = 1<br/>value = 68.0>, fillcolor="#efb184"] ;
35 -> 37 ;
38 [label=<X<SUB>1</SUB> &le; -0.465<br/>squared_error = 12.25<br/>samples = 4<br/>value = 75.5>, fillcolor="#eca571"] ;
28 -> 38 ;
39 [label=<squared_error = 0.0<br/>samples = 2<br/>value = 72.0>, fillcolor="#eeaa7a"] ;
38 -> 39 ;
40 [label=<squared_error = 0.0<br/>samples = 2<br/>value = 79.0>, fillcolor="#eb9f69"] ;
38 -> 40 ;
41 [label=<squared_error = 0.0<br/>samples = 1<br/>value = 40.0>, fillcolor="#f8deca"] ;
21 -> 41 ;
42 [label=<X<SUB>2</SUB> &le; -0.251<br/>squared_error = 2.25<br/>samples = 4<br/>value = 61.5>, fillcolor="#f1bb94"] ;
4 -> 42 ;
43 [label=<squared_error = 0.0<br/>samples = 2<br/>value = 60.0>, fillcolor="#f2be98"] ;
42 -> 43 ;
44 [label=<squared_error = 0.0<br/>samples = 2<br/>value = 63.0>, fillcolor="#f1b991"] ;
42 -> 44 ;
45 [label=<X<SUB>1</SUB> &le; -0.148<br/>squared_error = 145.784<br/>samples = 349<br/>value = 61.135>, fillcolor="#f1bc95"] ;
3 -> 45 ;
46 [label=<X<SUB>4</SUB> &le; -0.184<br/>squared_error = 158.865<br/>samples = 151<br/>value = 58.358>, fillcolor="#f2c09c"] ;
45 -> 46 ;
47 [label=<X<SUB>4</SUB> &le; -0.187<br/>squared_error = 141.125<br/>samples = 57<br/>value = 61.877>, fillcolor="#f1bb94"] ;
46 -> 47 ;
48 [label=<X<SUB>4</SUB> &le; -0.201<br/>squared_error = 129.736<br/>samples = 39<br/>value = 59.462>, fillcolor="#f2be9a"] ;
47 -> 48 ;
49 [label=<X<SUB>1</SUB> &le; -0.215<br/>squared_error = 59.391<br/>samples = 19<br/>value = 65.368>, fillcolor="#f0b58b"] ;
48 -> 49 ;
50 [label=<X<SUB>2</SUB> &le; -0.305<br/>squared_error = 34.827<br/>samples = 15<br/>value = 68.2>, fillcolor="#efb184"] ;
49 -> 50 ;
51 [label=<X<SUB>4</SUB> &le; -0.205<br/>squared_error = 21.556<br/>samples = 3<br/>value = 61.333>, fillcolor="#f1bb95"] ;
50 -> 51 ;
52 [label=<X<SUB>1</SUB> &le; -0.268<br/>squared_error = 2.25<br/>samples = 2<br/>value = 64.5>, fillcolor="#f0b68d"] ;
51 -> 52 ;
53 [label=<squared_error = 0.0<br/>samples = 1<br/>value = 66.0>, fillcolor="#f0b489"] ;
52 -> 53 ;
54 [label=<squared_error = 0.0<br/>samples = 1<br/>value = 63.0>, fillcolor="#f1b991"] ;
52 -> 54 ;
55 [label=<squared_error = 0.0<br/>samples = 1<br/>value = 55.0>, fillcolor="#f3c6a5"] ;
51 -> 55 ;
56 [label=<X<SUB>0</SUB> &le; 29.5<br/>squared_error = 23.41<br/>samples = 12<br/>value = 69.917>, fillcolor="#eeae7f"] ;
50 -> 56 ;
57 [label=<X<SUB>1</SUB> &le; -0.26<br/>squared_error = 10.188<br/>samples = 8<br/>value = 72.25>, fillcolor="#edaa7a"] ;
56 -> 57 ;
58 [label=<X<SUB>3</SUB> &le; -0.19<br/>squared_error = 1.688<br/>samples = 4<br/>value = 69.75>, fillcolor="#eeae80"] ;
57 -> 58 ;
59 [label=<squared_error = 0.0<br/>samples = 1<br/>value = 72.0>, fillcolor="#eeaa7a"] ;
58 -> 59 ;
60 [label=<squared_error = 0.0<br/>samples = 3<br/>value = 69.0>, fillcolor="#efaf82"] ;
58 -> 60 ;
61 [label=<X<SUB>1</SUB> &le; -0.233<br/>squared_error = 6.188<br/>samples = 4<br/>value = 74.75>, fillcolor="#eda673"] ;
57 -> 61 ;
62 [label=<X<SUB>3</SUB> &le; -0.195<br/>squared_error = 2.0<br/>samples = 3<br/>value = 76.0>, fillcolor="#eca470"] ;
61 -> 62 ;
63 [label=<squared_error = 0.0<br/>samples = 1<br/>value = 78.0>, fillcolor="#eca16b"] ;
62 -> 63 ;
64 [label=<squared_error = 0.0<br/>samples = 2<br/>value = 75.0>, fillcolor="#eda673"] ;
62 -> 64 ;
65 [label=<squared_error = 0.0<br/>samples = 1<br/>value = 71.0>, fillcolor="#eeac7d"] ;
61 -> 65 ;
66 [label=<X<SUB>3</SUB> &le; -0.217<br/>squared_error = 17.188<br/>samples = 4<br/>value = 65.25>, fillcolor="#f0b58b"] ;
56 -> 66 ;
67 [label=<X<SUB>0</SUB> &le; 30.5<br/>squared_error = 4.0<br/>samples = 2<br/>value = 69.0>, fillcolor="#efaf82"] ;
66 -> 67 ;
68 [label=<squared_error = 0.0<br/>samples = 1<br/>value = 71.0>, fillcolor="#eeac7d"] ;
67 -> 68 ;
69 [label=<squared_error = 0.0<br/>samples = 1<br/>value = 67.0>, fillcolor="#efb287"] ;
67 -> 69 ;
70 [label=<X<SUB>0</SUB> &le; 30.5<br/>squared_error = 2.25<br/>samples = 2<br/>value = 61.5>, fillcolor="#f1bb94"] ;
66 -> 70 ;
71 [label=<squared_error = 0.0<br/>samples = 1<br/>value = 63.0>, fillcolor="#f1b991"] ;
70 -> 71 ;
72 [label=<squared_error = 0.0<br/>samples = 1<br/>value = 60.0>, fillcolor="#f2be98"] ;
70 -> 72 ;
73 [label=<X<SUB>0</SUB> &le; 30.5<br/>squared_error = 8.688<br/>samples = 4<br/>value = 54.75>, fillcolor="#f3c6a5"] ;
49 -> 73 ;
74 [label=<X<SUB>2</SUB> &le; -0.296<br/>squared_error = 2.25<br/>samples = 2<br/>value = 57.5>, fillcolor="#f2c29f"] ;
73 -> 74 ;
75 [label=<squared_error = 0.0<br/>samples = 1<br/>value = 56.0>, fillcolor="#f3c4a2"] ;
74 -> 75 ;
76 [label=<squared_error = 0.0<br/>samples = 1<br/>value = 59.0>, fillcolor="#f2bf9b"] ;
74 -> 76 ;
77 [label=<squared_error = 0.0<br/>samples = 2<br/>value = 52.0>, fillcolor="#f4caac"] ;
73 -> 77 ;
78 [label=<X<SUB>2</SUB> &le; -0.312<br/>squared_error = 131.927<br/>samples = 20<br/>value = 53.85>, fillcolor="#f4c7a8"] ;
48 -> 78 ;
79 [label=<X<SUB>0</SUB> &le; 22.5<br/>squared_error = 91.583<br/>samples = 6<br/>value = 63.5>, fillcolor="#f0b88f"] ;
78 -> 79 ;
80 [label=<X<SUB>2</SUB> &le; -0.338<br/>squared_error = 38.222<br/>samples = 3<br/>value = 71.333>, fillcolor="#eeac7c"] ;
79 -> 80 ;
81 [label=<squared_error = 0.0<br/>samples = 1<br/>value = 80.0>, fillcolor="#eb9e66"] ;
80 -> 81 ;
82 [label=<X<SUB>1</SUB> &le; -0.278<br/>squared_error = 1.0<br/>samples = 2<br/>value = 67.0>, fillcolor="#efb287"] ;
80 -> 82 ;
83 [label=<squared_error = 0.0<br/>samples = 1<br/>value = 68.0>, fillcolor="#efb184"] ;
82 -> 83 ;
84 [label=<squared_error = 0.0<br/>samples = 1<br/>value = 66.0>, fillcolor="#f0b489"] ;
82 -> 84 ;
85 [label=<X<SUB>1</SUB> &le; -0.21<br/>squared_error = 22.222<br/>samples = 3<br/>value = 55.667>, fillcolor="#f3c5a3"] ;
79 -> 85 ;
86 [label=<squared_error = 0.0<br/>samples = 2<br/>value = 59.0>, fillcolor="#f2bf9b"] ;
85 -> 86 ;
87 [label=<squared_error = 0.0<br/>samples = 1<br/>value = 49.0>, fillcolor="#f5cfb4"] ;
85 -> 87 ;
88 [label=<X<SUB>0</SUB> &le; 13.5<br/>squared_error = 92.204<br/>samples = 14<br/>value = 49.714>, fillcolor="#f5ceb2"] ;
78 -> 88 ;
89 [label=<X<SUB>4</SUB> &le; -0.187<br/>squared_error = 68.139<br/>samples = 6<br/>value = 41.167>, fillcolor="#f8dcc7"] ;
88 -> 89 ;
90 [label=<X<SUB>3</SUB> &le; -0.115<br/>squared_error = 21.6<br/>samples = 5<br/>value = 38.0>, fillcolor="#f9e1cf"] ;
89 -> 90 ;
91 [label=<X<SUB>0</SUB> &le; 0.5<br/>squared_error = 22.222<br/>samples = 3<br/>value = 40.333>, fillcolor="#f8ddca"] ;
90 -> 91 ;
92 [label=<squared_error = 0.0<br/>samples = 1<br/>value = 47.0>, fillcolor="#f6d2b9"] ;
91 -> 92 ;
93 [label=<squared_error = 0.0<br/>samples = 2<br/>value = 37.0>, fillcolor="#f9e2d2"] ;
91 -> 93 ;
94 [label=<X<SUB>2</SUB> &le; -0.31<br/>squared_error = 0.25<br/>samples = 2<br/>value = 34.5>, fillcolor="#fae6d8"] ;
90 -> 94 ;
95 [label=<squared_error = 0.0<br/>samples = 1<br/>value = 34.0>, fillcolor="#fae7d9"] ;
94 -> 95 ;
96 [label=<squared_error = 0.0<br/>samples = 1<br/>value = 35.0>, fillcolor="#fae5d7"] ;
94 -> 96 ;
97 [label=<squared_error = 0.0<br/>samples = 1<br/>value = 57.0>, fillcolor="#f2c2a0"] ;
89 -> 97 ;
98 [label=<X<SUB>1</SUB> &le; -0.301<br/>squared_error = 14.359<br/>samples = 8<br/>value = 56.125>, fillcolor="#f3c4a2"] ;
88 -> 98 ;
99 [label=<X<SUB>1</SUB> &le; -0.312<br/>squared_error = 8.8<br/>samples = 5<br/>value = 58.0>, fillcolor="#f2c19d"] ;
98 -> 99 ;
100 [label=<X<SUB>3</SUB> &le; -0.091<br/>squared_error = 3.188<br/>samples = 4<br/>value = 56.75>, fillcolor="#f3c3a0"] ;
99 -> 100 ;
101 [label=<X<SUB>0</SUB> &le; 22.0<br/>squared_error = 0.25<br/>samples = 2<br/>value = 58.5>, fillcolor="#f2c09c"] ;
100 -> 101 ;
102 [label=<squared_error = 0.0<br/>samples = 1<br/>value = 59.0>, fillcolor="#f2bf9b"] ;
101 -> 102 ;
103 [label=<squared_error = 0.0<br/>samples = 1<br/>value = 58.0>, fillcolor="#f2c19d"] ;
101 -> 103 ;
104 [label=<squared_error = 0.0<br/>samples = 2<br/>value = 55.0>, fillcolor="#f3c6a5"] ;
100 -> 104 ;
105 [label=<squared_error = 0.0<br/>samples = 1<br/>value = 63.0>, fillcolor="#f1b991"] ;
99 -> 105 ;
106 [label=<X<SUB>4</SUB> &le; -0.196<br/>squared_error = 8.0<br/>samples = 3<br/>value = 53.0>, fillcolor="#f4c9aa"] ;
98 -> 106 ;
107 [label=<squared_error = 0.0<br/>samples = 1<br/>value = 57.0>, fillcolor="#f2c2a0"] ;
106 -> 107 ;
108 [label=<squared_error = 0.0<br/>samples = 2<br/>value = 51.0>, fillcolor="#f4ccaf"] ;
106 -> 108 ;
109 [label=<X<SUB>4</SUB> &le; -0.186<br/>squared_error = 125.765<br/>samples = 18<br/>value = 67.111>, fillcolor="#efb286"] ;
47 -> 109 ;
110 [label=<X<SUB>1</SUB> &le; -0.342<br/>squared_error = 11.556<br/>samples = 3<br/>value = 80.667>, fillcolor="#eb9d64"] ;
109 -> 110 ;
111 [label=<X<SUB>1</SUB> &le; -0.456<br/>squared_error = 1.0<br/>samples = 2<br/>value = 83.0>, fillcolor="#ea995f"] ;
110 -> 111 ;
112 [label=<squared_error = 0.0<br/>samples = 1<br/>value = 82.0>, fillcolor="#ea9b61"] ;
111 -> 112 ;
113 [label=<squared_error = 0.0<br/>samples = 1<br/>value = 84.0>, fillcolor="#ea975c"] ;
111 -> 113 ;
114 [label=<squared_error = 0.0<br/>samples = 1<br/>value = 76.0>, fillcolor="#eca470"] ;
110 -> 114 ;
115 [label=<X<SUB>0</SUB> &le; 29.5<br/>squared_error = 104.507<br/>samples = 15<br/>value = 64.4>, fillcolor="#f0b78d"] ;
109 -> 115 ;
116 [label=<X<SUB>3</SUB> &le; -0.196<br/>squared_error = 71.521<br/>samples = 11<br/>value = 67.455>, fillcolor="#efb286"] ;
115 -> 116 ;
117 [label=<X<SUB>0</SUB> &le; 0.5<br/>squared_error = 25.25<br/>samples = 6<br/>value = 61.5>, fillcolor="#f1bb94"] ;
116 -> 117 ;
118 [label=<squared_error = 0.0<br/>samples = 1<br/>value = 69.0>, fillcolor="#efaf82"] ;
117 -> 118 ;
119 [label=<X<SUB>2</SUB> &le; -0.248<br/>squared_error = 16.8<br/>samples = 5<br/>value = 60.0>, fillcolor="#f2be98"] ;
117 -> 119 ;
120 [label=<X<SUB>1</SUB> &le; -0.327<br/>squared_error = 0.222<br/>samples = 3<br/>value = 56.667>, fillcolor="#f3c3a1"] ;
119 -> 120 ;
121 [label=<squared_error = 0.0<br/>samples = 2<br/>value = 57.0>, fillcolor="#f2c2a0"] ;
120 -> 121 ;
122 [label=<squared_error = 0.0<br/>samples = 1<br/>value = 56.0>, fillcolor="#f3c4a2"] ;
120 -> 122 ;
123 [label=<squared_error = 0.0<br/>samples = 2<br/>value = 65.0>, fillcolor="#f0b68c"] ;
119 -> 123 ;
124 [label=<X<SUB>0</SUB> &le; 23.0<br/>squared_error = 33.44<br/>samples = 5<br/>value = 74.6>, fillcolor="#eda674"] ;
116 -> 124 ;
125 [label=<X<SUB>0</SUB> &le; 15.5<br/>squared_error = 12.25<br/>samples = 2<br/>value = 69.5>, fillcolor="#eeae80"] ;
124 -> 125 ;
126 [label=<squared_error = 0.0<br/>samples = 1<br/>value = 73.0>, fillcolor="#eda978"] ;
125 -> 126 ;
127 [label=<squared_error = 0.0<br/>samples = 1<br/>value = 66.0>, fillcolor="#f0b489"] ;
125 -> 127 ;
128 [label=<X<SUB>2</SUB> &le; -0.314<br/>squared_error = 18.667<br/>samples = 3<br/>value = 78.0>, fillcolor="#eca16b"] ;
124 -> 128 ;
129 [label=<squared_error = 0.0<br/>samples = 1<br/>value = 72.0>, fillcolor="#eeaa7a"] ;
128 -> 129 ;
130 [label=<X<SUB>2</SUB> &le; -0.279<br/>squared_error = 1.0<br/>samples = 2<br/>value = 81.0>, fillcolor="#eb9c64"] ;
128 -> 130 ;
131 [label=<squared_error = 0.0<br/>samples = 1<br/>value = 82.0>, fillcolor="#ea9b61"] ;
130 -> 131 ;
132 [label=<squared_error = 0.0<br/>samples = 1<br/>value = 80.0>, fillcolor="#eb9e66"] ;
130 -> 132 ;
133 [label=<X<SUB>3</SUB> &le; -0.196<br/>squared_error = 99.0<br/>samples = 4<br/>value = 56.0>, fillcolor="#f3c4a2"] ;
115 -> 133 ;
134 [label=<squared_error = 0.0<br/>samples = 1<br/>value = 73.0>, fillcolor="#eda978"] ;
133 -> 134 ;
135 [label=<X<SUB>0</SUB> &le; 30.5<br/>squared_error = 3.556<br/>samples = 3<br/>value = 50.333>, fillcolor="#f5cdb0"] ;
133 -> 135 ;
136 [label=<squared_error = 0.0<br/>samples = 2<br/>value = 49.0>, fillcolor="#f5cfb4"] ;
135 -> 136 ;
137 [label=<squared_error = 0.0<br/>samples = 1<br/>value = 53.0>, fillcolor="#f4c9aa"] ;
135 -> 137 ;
138 [label=<X<SUB>2</SUB> &le; -0.313<br/>squared_error = 157.556<br/>samples = 94<br/>value = 56.223>, fillcolor="#f3c4a2"] ;
46 -> 138 ;
139 [label=<X<SUB>4</SUB> &le; -0.066<br/>squared_error = 149.751<br/>samples = 45<br/>value = 59.4>, fillcolor="#f2bf9a"] ;
138 -> 139 ;
140 [label=<X<SUB>1</SUB> &le; -0.325<br/>squared_error = 128.754<br/>samples = 44<br/>value = 60.136>, fillcolor="#f1bd98"] ;
139 -> 140 ;
141 [label=<X<SUB>3</SUB> &le; -0.086<br/>squared_error = 94.0<br/>samples = 8<br/>value = 68.5>, fillcolor="#efb083"] ;
140 -> 141 ;
142 [label=<X<SUB>4</SUB> &le; -0.114<br/>squared_error = 29.188<br/>samples = 4<br/>value = 76.75>, fillcolor="#eca36e"] ;
141 -> 142 ;
143 [label=<squared_error = 0.0<br/>samples = 1<br/>value = 86.0>, fillcolor="#e99457"] ;
142 -> 143 ;
144 [label=<X<SUB>1</SUB> &le; -0.346<br/>squared_error = 0.889<br/>samples = 3<br/>value = 73.667>, fillcolor="#eda876"] ;
142 -> 144 ;
145 [label=<squared_error = 0.0<br/>samples = 2<br/>value = 73.0>, fillcolor="#eda978"] ;
144 -> 145 ;
146 [label=<squared_error = 0.0<br/>samples = 1<br/>value = 75.0>, fillcolor="#eda673"] ;
144 -> 146 ;
147 [label=<X<SUB>0</SUB> &le; 17.5<br/>squared_error = 22.688<br/>samples = 4<br/>value = 60.25>, fillcolor="#f1bd98"] ;
141 -> 147 ;
148 [label=<X<SUB>2</SUB> &le; -0.34<br/>squared_error = 0.25<br/>samples = 2<br/>value = 55.5>, fillcolor="#f3c5a4"] ;
147 -> 148 ;
149 [label=<squared_error = 0.0<br/>samples = 1<br/>value = 56.0>, fillcolor="#f3c4a2"] ;
148 -> 149 ;
150 [label=<squared_error = 0.0<br/>samples = 1<br/>value = 55.0>, fillcolor="#f3c6a5"] ;
148 -> 150 ;
151 [label=<squared_error = 0.0<br/>samples = 2<br/>value = 65.0>, fillcolor="#f0b68c"] ;
147 -> 151 ;
152 [label=<X<SUB>4</SUB> &le; -0.167<br/>squared_error = 117.478<br/>samples = 36<br/>value = 58.278>, fillcolor="#f2c09d"] ;
140 -> 152 ;
153 [label=<X<SUB>4</SUB> &le; -0.18<br/>squared_error = 96.531<br/>samples = 7<br/>value = 52.571>, fillcolor="#f4c9ab"] ;
152 -> 153 ;
154 [label=<X<SUB>1</SUB> &le; -0.182<br/>squared_error = 144.0<br/>samples = 2<br/>value = 64.0>, fillcolor="#f0b78e"] ;
153 -> 154 ;
155 [label=<squared_error = 0.0<br/>samples = 1<br/>value = 76.0>, fillcolor="#eca470"] ;
154 -> 155 ;
156 [label=<squared_error = 0.0<br/>samples = 1<br/>value = 52.0>, fillcolor="#f4caac"] ;
154 -> 156 ;
157 [label=<X<SUB>0</SUB> &le; 20.0<br/>squared_error = 4.4<br/>samples = 5<br/>value = 48.0>, fillcolor="#f5d1b6"] ;
153 -> 157 ;
158 [label=<X<SUB>4</SUB> &le; -0.176<br/>squared_error = 0.222<br/>samples = 3<br/>value = 49.667>, fillcolor="#f5ceb2"] ;
157 -> 158 ;
159 [label=<squared_error = 0.0<br/>samples = 2<br/>value = 50.0>, fillcolor="#f5ceb1"] ;
158 -> 159 ;
160 [label=<squared_error = 0.0<br/>samples = 1<br/>value = 49.0>, fillcolor="#f5cfb4"] ;
158 -> 160 ;
161 [label=<X<SUB>4</SUB> &le; -0.178<br/>squared_error = 0.25<br/>samples = 2<br/>value = 45.5>, fillcolor="#f6d5bd"] ;
157 -> 161 ;
162 [label=<squared_error = 0.0<br/>samples = 1<br/>value = 45.0>, fillcolor="#f6d6be"] ;
161 -> 162 ;
163 [label=<squared_error = 0.0<br/>samples = 1<br/>value = 46.0>, fillcolor="#f6d4bb"] ;
161 -> 163 ;
164 [label=<X<SUB>1</SUB> &le; -0.165<br/>squared_error = 112.778<br/>samples = 29<br/>value = 59.655>, fillcolor="#f2be99"] ;
152 -> 164 ;
165 [label=<X<SUB>4</SUB> &le; -0.09<br/>squared_error = 93.045<br/>samples = 28<br/>value = 58.75>, fillcolor="#f2c09b"] ;
164 -> 165 ;
166 [label=<X<SUB>2</SUB> &le; -0.322<br/>squared_error = 46.0<br/>samples = 8<br/>value = 64.0>, fillcolor="#f0b78e"] ;
165 -> 166 ;
167 [label=<X<SUB>2</SUB> &le; -0.325<br/>squared_error = 21.139<br/>samples = 6<br/>value = 60.833>, fillcolor="#f1bc96"] ;
166 -> 167 ;
168 [label=<X<SUB>2</SUB> &le; -0.34<br/>squared_error = 6.64<br/>samples = 5<br/>value = 62.6>, fillcolor="#f1b992"] ;
167 -> 168 ;
169 [label=<X<SUB>2</SUB> &le; -0.364<br/>squared_error = 2.25<br/>samples = 4<br/>value = 61.5>, fillcolor="#f1bb94"] ;
168 -> 169 ;
170 [label=<squared_error = 0.0<br/>samples = 1<br/>value = 63.0>, fillcolor="#f1b991"] ;
169 -> 170 ;
171 [label=<squared_error = 2.0<br/>samples = 3<br/>value = 61.0>, fillcolor="#f1bc96"] ;
169 -> 171 ;
172 [label=<squared_error = 0.0<br/>samples = 1<br/>value = 67.0>, fillcolor="#efb287"] ;
168 -> 172 ;
173 [label=<squared_error = 0.0<br/>samples = 1<br/>value = 52.0>, fillcolor="#f4caac"] ;
167 -> 173 ;
174 [label=<X<SUB>4</SUB> &le; -0.104<br/>squared_error = 0.25<br/>samples = 2<br/>value = 73.5>, fillcolor="#eda876"] ;
166 -> 174 ;
175 [label=<squared_error = 0.0<br/>samples = 1<br/>value = 73.0>, fillcolor="#eda978"] ;
174 -> 175 ;
176 [label=<squared_error = 0.0<br/>samples = 1<br/>value = 74.0>, fillcolor="#eda775"] ;
174 -> 176 ;
177 [label=<X<SUB>4</SUB> &le; -0.089<br/>squared_error = 96.428<br/>samples = 20<br/>value = 56.65>, fillcolor="#f3c3a1"] ;
165 -> 177 ;
178 [label=<squared_error = 0.0<br/>samples = 1<br/>value = 27.0>, fillcolor="#fcf2eb"] ;
177 -> 178 ;
179 [label=<X<SUB>4</SUB> &le; -0.086<br/>squared_error = 52.798<br/>samples = 19<br/>value = 58.211>, fillcolor="#f2c09d"] ;
177 -> 179 ;
180 [label=<X<SUB>0</SUB> &le; 8.0<br/>squared_error = 18.688<br/>samples = 4<br/>value = 65.25>, fillcolor="#f0b58b"] ;
179 -> 180 ;
181 [label=<X<SUB>1</SUB> &le; -0.21<br/>squared_error = 1.0<br/>samples = 2<br/>value = 61.0>, fillcolor="#f1bc96"] ;
180 -> 181 ;
182 [label=<squared_error = 0.0<br/>samples = 1<br/>value = 60.0>, fillcolor="#f2be98"] ;
181 -> 182 ;
183 [label=<squared_error = 0.0<br/>samples = 1<br/>value = 62.0>, fillcolor="#f1ba93"] ;
181 -> 183 ;
184 [label=<X<SUB>3</SUB> &le; -0.092<br/>squared_error = 0.25<br/>samples = 2<br/>value = 69.5>, fillcolor="#eeae80"] ;
180 -> 184 ;
185 [label=<squared_error = 0.0<br/>samples = 1<br/>value = 70.0>, fillcolor="#eeae7f"] ;
184 -> 185 ;
186 [label=<squared_error = 0.0<br/>samples = 1<br/>value = 69.0>, fillcolor="#efaf82"] ;
184 -> 186 ;
187 [label=<X<SUB>0</SUB> &le; 15.5<br/>squared_error = 45.156<br/>samples = 15<br/>value = 56.333>, fillcolor="#f3c3a1"] ;
179 -> 187 ;
188 [label=<X<SUB>4</SUB> &le; -0.085<br/>squared_error = 91.688<br/>samples = 4<br/>value = 61.25>, fillcolor="#f1bc95"] ;
187 -> 188 ;
189 [label=<squared_error = 0.0<br/>samples = 2<br/>value = 52.0>, fillcolor="#f4caac"] ;
188 -> 189 ;
190 [label=<X<SUB>4</SUB> &le; -0.081<br/>squared_error = 12.25<br/>samples = 2<br/>value = 70.5>, fillcolor="#eead7e"] ;
188 -> 190 ;
191 [label=<squared_error = 0.0<br/>samples = 1<br/>value = 67.0>, fillcolor="#efb287"] ;
190 -> 191 ;
192 [label=<squared_error = 0.0<br/>samples = 1<br/>value = 74.0>, fillcolor="#eda775"] ;
190 -> 192 ;
193 [label=<X<SUB>0</SUB> &le; 28.0<br/>squared_error = 16.248<br/>samples = 11<br/>value = 54.545>, fillcolor="#f3c6a6"] ;
187 -> 193 ;
194 [label=<X<SUB>1</SUB> &le; -0.186<br/>squared_error = 3.6<br/>samples = 5<br/>value = 51.0>, fillcolor="#f4ccaf"] ;
193 -> 194 ;
195 [label=<X<SUB>2</SUB> &le; -0.314<br/>squared_error = 1.688<br/>samples = 4<br/>value = 50.25>, fillcolor="#f5cdb1"] ;
194 -> 195 ;
196 [label=<squared_error = 0.0<br/>samples = 3<br/>value = 51.0>, fillcolor="#f4ccaf"] ;
195 -> 196 ;
197 [label=<squared_error = 0.0<br/>samples = 1<br/>value = 48.0>, fillcolor="#f5d1b6"] ;
195 -> 197 ;
198 [label=<squared_error = 0.0<br/>samples = 1<br/>value = 54.0>, fillcolor="#f3c7a7"] ;
194 -> 198 ;
199 [label=<X<SUB>3</SUB> &le; -0.078<br/>squared_error = 7.583<br/>samples = 6<br/>value = 57.5>, fillcolor="#f2c29f"] ;
193 -> 199 ;
200 [label=<X<SUB>3</SUB> &le; -0.084<br/>squared_error = 1.0<br/>samples = 2<br/>value = 60.0>, fillcolor="#f2be98"] ;
199 -> 200 ;
201 [label=<squared_error = 0.0<br/>samples = 1<br/>value = 61.0>, fillcolor="#f1bc96"] ;
200 -> 201 ;
202 [label=<squared_error = 0.0<br/>samples = 1<br/>value = 59.0>, fillcolor="#f2bf9b"] ;
200 -> 202 ;
203 [label=<X<SUB>3</SUB> &le; -0.075<br/>squared_error = 6.188<br/>samples = 4<br/>value = 56.25>, fillcolor="#f3c4a2"] ;
199 -> 203 ;
204 [label=<X<SUB>2</SUB> &le; -0.38<br/>squared_error = 2.0<br/>samples = 3<br/>value = 55.0>, fillcolor="#f3c6a5"] ;
203 -> 204 ;
205 [label=<squared_error = 0.0<br/>samples = 1<br/>value = 53.0>, fillcolor="#f4c9aa"] ;
204 -> 205 ;
206 [label=<squared_error = 0.0<br/>samples = 2<br/>value = 56.0>, fillcolor="#f3c4a2"] ;
204 -> 206 ;
207 [label=<squared_error = 0.0<br/>samples = 1<br/>value = 60.0>, fillcolor="#f2be98"] ;
203 -> 207 ;
208 [label=<squared_error = 0.0<br/>samples = 1<br/>value = 85.0>, fillcolor="#e9965a"] ;
164 -> 208 ;
209 [label=<squared_error = 0.0<br/>samples = 1<br/>value = 27.0>, fillcolor="#fcf2eb"] ;
139 -> 209 ;
210 [label=<X<SUB>3</SUB> &le; -0.139<br/>squared_error = 146.947<br/>samples = 49<br/>value = 53.306>, fillcolor="#f4c8a9"] ;
138 -> 210 ;
211 [label=<X<SUB>3</SUB> &le; -0.217<br/>squared_error = 127.994<br/>samples = 41<br/>value = 55.39>, fillcolor="#f3c5a4"] ;
210 -> 211 ;
212 [label=<X<SUB>3</SUB> &le; -0.219<br/>squared_error = 63.673<br/>samples = 7<br/>value = 47.429>, fillcolor="#f6d2b8"] ;
211 -> 212 ;
213 [label=<X<SUB>3</SUB> &le; -0.221<br/>squared_error = 18.188<br/>samples = 4<br/>value = 53.75>, fillcolor="#f4c8a8"] ;
212 -> 213 ;
214 [label=<X<SUB>4</SUB> &le; -0.122<br/>squared_error = 0.25<br/>samples = 2<br/>value = 49.5>, fillcolor="#f5ceb3"] ;
213 -> 214 ;
215 [label=<squared_error = 0.0<br/>samples = 1<br/>value = 50.0>, fillcolor="#f5ceb1"] ;
214 -> 215 ;
216 [label=<squared_error = 0.0<br/>samples = 1<br/>value = 49.0>, fillcolor="#f5cfb4"] ;
214 -> 216 ;
217 [label=<squared_error = 0.0<br/>samples = 2<br/>value = 58.0>, fillcolor="#f2c19d"] ;
213 -> 217 ;
218 [label=<squared_error = 0.0<br/>samples = 3<br/>value = 39.0>, fillcolor="#f8dfcd"] ;
212 -> 218 ;
219 [label=<X<SUB>1</SUB> &le; -0.266<br/>squared_error = 125.499<br/>samples = 34<br/>value = 57.029>, fillcolor="#f2c2a0"] ;
211 -> 219 ;
220 [label=<X<SUB>0</SUB> &le; 9.5<br/>squared_error = 120.049<br/>samples = 30<br/>value = 55.467>, fillcolor="#f3c5a4"] ;
219 -> 220 ;
221 [label=<X<SUB>3</SUB> &le; -0.194<br/>squared_error = 40.64<br/>samples = 5<br/>value = 62.6>, fillcolor="#f1b992"] ;
220 -> 221 ;
222 [label=<squared_error = 0.0<br/>samples = 2<br/>value = 69.0>, fillcolor="#efaf82"] ;
221 -> 222 ;
223 [label=<X<SUB>0</SUB> &le; 2.0<br/>squared_error = 22.222<br/>samples = 3<br/>value = 58.333>, fillcolor="#f2c09c"] ;
221 -> 223 ;
224 [label=<squared_error = 0.0<br/>samples = 1<br/>value = 65.0>, fillcolor="#f0b68c"] ;
223 -> 224 ;
225 [label=<squared_error = 0.0<br/>samples = 2<br/>value = 55.0>, fillcolor="#f3c6a5"] ;
223 -> 225 ;
226 [label=<X<SUB>2</SUB> &le; -0.244<br/>squared_error = 123.718<br/>samples = 25<br/>value = 54.04>, fillcolor="#f3c7a7"] ;
220 -> 226 ;
227 [label=<X<SUB>4</SUB> &le; -0.183<br/>squared_error = 95.073<br/>samples = 17<br/>value = 51.471>, fillcolor="#f4cbae"] ;
226 -> 227 ;
228 [label=<X<SUB>0</SUB> &le; 28.5<br/>squared_error = 174.222<br/>samples = 3<br/>value = 44.333>, fillcolor="#f7d7c0"] ;
227 -> 228 ;
229 [label=<squared_error = 0.0<br/>samples = 1<br/>value = 63.0>, fillcolor="#f1b991"] ;
228 -> 229 ;
230 [label=<squared_error = 0.0<br/>samples = 2<br/>value = 35.0>, fillcolor="#fae5d7"] ;
228 -> 230 ;
231 [label=<X<SUB>0</SUB> &le; 15.5<br/>squared_error = 64.857<br/>samples = 14<br/>value = 53.0>, fillcolor="#f4c9aa"] ;
227 -> 231 ;
232 [label=<X<SUB>3</SUB> &le; -0.194<br/>squared_error = 48.984<br/>samples = 8<br/>value = 49.375>, fillcolor="#f5cfb3"] ;
231 -> 232 ;
233 [label=<X<SUB>3</SUB> &le; -0.204<br/>squared_error = 25.0<br/>samples = 2<br/>value = 59.0>, fillcolor="#f2bf9b"] ;
232 -> 233 ;
234 [label=<squared_error = 0.0<br/>samples = 1<br/>value = 54.0>, fillcolor="#f3c7a7"] ;
233 -> 234 ;
235 [label=<squared_error = 0.0<br/>samples = 1<br/>value = 64.0>, fillcolor="#f0b78e"] ;
233 -> 235 ;
236 [label=<X<SUB>3</SUB> &le; -0.151<br/>squared_error = 15.806<br/>samples = 6<br/>value = 46.167>, fillcolor="#f6d4bb"] ;
232 -> 236 ;
237 [label=<X<SUB>1</SUB> &le; -0.445<br/>squared_error = 0.24<br/>samples = 5<br/>value = 44.4>, fillcolor="#f7d6bf"] ;
236 -> 237 ;
238 [label=<squared_error = 0.0<br/>samples = 2<br/>value = 45.0>, fillcolor="#f6d6be"] ;
237 -> 238 ;
239 [label=<squared_error = 0.0<br/>samples = 3<br/>value = 44.0>, fillcolor="#f7d7c0"] ;
237 -> 239 ;
240 [label=<squared_error = 0.0<br/>samples = 1<br/>value = 55.0>, fillcolor="#f3c6a5"] ;
236 -> 240 ;
241 [label=<X<SUB>4</SUB> &le; -0.138<br/>squared_error = 45.139<br/>samples = 6<br/>value = 57.833>, fillcolor="#f2c19e"] ;
231 -> 241 ;
242 [label=<X<SUB>0</SUB> &le; 30.0<br/>squared_error = 30.96<br/>samples = 5<br/>value = 59.8>, fillcolor="#f2be99"] ;
241 -> 242 ;
243 [label=<X<SUB>1</SUB> &le; -0.446<br/>squared_error = 4.0<br/>samples = 2<br/>value = 56.0>, fillcolor="#f3c4a2"] ;
242 -> 243 ;
244 [label=<squared_error = 0.0<br/>samples = 1<br/>value = 54.0>, fillcolor="#f3c7a7"] ;
243 -> 244 ;
245 [label=<squared_error = 0.0<br/>samples = 1<br/>value = 58.0>, fillcolor="#f2c19d"] ;
243 -> 245 ;
246 [label=<X<SUB>3</SUB> &le; -0.183<br/>squared_error = 32.889<br/>samples = 3<br/>value = 62.333>, fillcolor="#f1ba92"] ;
242 -> 246 ;
247 [label=<squared_error = 49.0<br/>samples = 2<br/>value = 62.0>, fillcolor="#f1ba93"] ;
246 -> 247 ;
248 [label=<squared_error = 0.0<br/>samples = 1<br/>value = 63.0>, fillcolor="#f1b991"] ;
246 -> 248 ;
249 [label=<squared_error = 0.0<br/>samples = 1<br/>value = 48.0>, fillcolor="#f5d1b6"] ;
241 -> 249 ;
250 [label=<X<SUB>0</SUB> &le; 18.0<br/>squared_error = 140.75<br/>samples = 8<br/>value = 59.5>, fillcolor="#f2be99"] ;
226 -> 250 ;
251 [label=<squared_error = 0.0<br/>samples = 3<br/>value = 56.0>, fillcolor="#f3c4a2"] ;
250 -> 251 ;
252 [label=<X<SUB>1</SUB> &le; -0.443<br/>squared_error = 213.44<br/>samples = 5<br/>value = 61.6>, fillcolor="#f1bb94"] ;
250 -> 252 ;
253 [label=<X<SUB>0</SUB> &le; 28.5<br/>squared_error = 72.25<br/>samples = 2<br/>value = 69.5>, fillcolor="#eeae80"] ;
252 -> 253 ;
254 [label=<squared_error = 0.0<br/>samples = 1<br/>value = 61.0>, fillcolor="#f1bc96"] ;
253 -> 254 ;
255 [label=<squared_error = 0.0<br/>samples = 1<br/>value = 78.0>, fillcolor="#eca16b"] ;
253 -> 255 ;
256 [label=<squared_error = 238.222<br/>samples = 3<br/>value = 56.333>, fillcolor="#f3c3a1"] ;
252 -> 256 ;
257 [label=<X<SUB>1</SUB> &le; -0.238<br/>squared_error = 10.688<br/>samples = 4<br/>value = 68.75>, fillcolor="#efb082"] ;
219 -> 257 ;
258 [label=<squared_error = 0.0<br/>samples = 1<br/>value = 74.0>, fillcolor="#eda775"] ;
257 -> 258 ;
259 [label=<X<SUB>4</SUB> &le; -0.13<br/>squared_error = 2.0<br/>samples = 3<br/>value = 67.0>, fillcolor="#efb287"] ;
257 -> 259 ;
260 [label=<squared_error = 0.0<br/>samples = 1<br/>value = 65.0>, fillcolor="#f0b68c"] ;
259 -> 260 ;
261 [label=<squared_error = 0.0<br/>samples = 2<br/>value = 68.0>, fillcolor="#efb184"] ;
259 -> 261 ;
262 [label=<X<SUB>1</SUB> &le; -0.286<br/>squared_error = 107.734<br/>samples = 8<br/>value = 42.625>, fillcolor="#f7d9c4"] ;
210 -> 262 ;
263 [label=<X<SUB>1</SUB> &le; -0.355<br/>squared_error = 48.531<br/>samples = 7<br/>value = 39.571>, fillcolor="#f8decb"] ;
262 -> 263 ;
264 [label=<X<SUB>1</SUB> &le; -0.428<br/>squared_error = 22.688<br/>samples = 4<br/>value = 44.25>, fillcolor="#f7d7c0"] ;
263 -> 264 ;
265 [label=<squared_error = 0.0<br/>samples = 1<br/>value = 52.0>, fillcolor="#f4caac"] ;
264 -> 265 ;
266 [label=<X<SUB>3</SUB> &le; -0.104<br/>squared_error = 3.556<br/>samples = 3<br/>value = 41.667>, fillcolor="#f8dbc6"] ;
264 -> 266 ;
267 [label=<squared_error = 0.0<br/>samples = 1<br/>value = 39.0>, fillcolor="#f8dfcd"] ;
266 -> 267 ;
268 [label=<squared_error = 0.0<br/>samples = 2<br/>value = 43.0>, fillcolor="#f7d9c3"] ;
266 -> 268 ;
269 [label=<X<SUB>3</SUB> &le; -0.134<br/>squared_error = 14.889<br/>samples = 3<br/>value = 33.333>, fillcolor="#fae8db"] ;
263 -> 269 ;
270 [label=<X<SUB>1</SUB> &le; -0.314<br/>squared_error = 12.25<br/>samples = 2<br/>value = 31.5>, fillcolor="#fbebe0"] ;
269 -> 270 ;
271 [label=<squared_error = 0.0<br/>samples = 1<br/>value = 35.0>, fillcolor="#fae5d7"] ;
270 -> 271 ;
272 [label=<squared_error = 0.0<br/>samples = 1<br/>value = 28.0>, fillcolor="#fcf1e8"] ;
270 -> 272 ;
273 [label=<squared_error = 0.0<br/>samples = 1<br/>value = 37.0>, fillcolor="#f9e2d2"] ;
269 -> 273 ;
274 [label=<squared_error = 0.0<br/>samples = 1<br/>value = 64.0>, fillcolor="#f0b78e"] ;
262 -> 274 ;
275 [label=<X<SUB>3</SUB> &le; -0.211<br/>squared_error = 125.441<br/>samples = 198<br/>value = 63.253>, fillcolor="#f0b890"] ;
45 -> 275 ;
276 [label=<X<SUB>0</SUB> &le; 7.0<br/>squared_error = 115.195<br/>samples = 84<br/>value = 59.917>, fillcolor="#f2be98"] ;
275 -> 276 ;
277 [label=<X<SUB>1</SUB> &le; 0.038<br/>squared_error = 104.4<br/>samples = 5<br/>value = 47.0>, fillcolor="#f6d2b9"] ;
276 -> 277 ;
278 [label=<X<SUB>4</SUB> &le; -0.194<br/>squared_error = 17.688<br/>samples = 4<br/>value = 51.75>, fillcolor="#f4cbad"] ;
277 -> 278 ;
279 [label=<X<SUB>2</SUB> &le; -0.261<br/>squared_error = 6.25<br/>samples = 2<br/>value = 55.5>, fillcolor="#f3c5a4"] ;
278 -> 279 ;
280 [label=<squared_error = 0.0<br/>samples = 1<br/>value = 53.0>, fillcolor="#f4c9aa"] ;
279 -> 280 ;
281 [label=<squared_error = 0.0<br/>samples = 1<br/>value = 58.0>, fillcolor="#f2c19d"] ;
279 -> 281 ;
282 [label=<X<SUB>3</SUB> &le; -0.236<br/>squared_error = 1.0<br/>samples = 2<br/>value = 48.0>, fillcolor="#f5d1b6"] ;
278 -> 282 ;
283 [label=<squared_error = 0.0<br/>samples = 1<br/>value = 49.0>, fillcolor="#f5cfb4"] ;
282 -> 283 ;
284 [label=<squared_error = 0.0<br/>samples = 1<br/>value = 47.0>, fillcolor="#f6d2b9"] ;
282 -> 284 ;
285 [label=<squared_error = 0.0<br/>samples = 1<br/>value = 28.0>, fillcolor="#fcf1e8"] ;
277 -> 285 ;
286 [label=<X<SUB>2</SUB> &le; -0.337<br/>squared_error = 104.651<br/>samples = 79<br/>value = 60.734>, fillcolor="#f1bc96"] ;
276 -> 286 ;
287 [label=<squared_error = 0.0<br/>samples = 1<br/>value = 38.0>, fillcolor="#f9e1cf"] ;
286 -> 287 ;
288 [label=<X<SUB>3</SUB> &le; -0.215<br/>squared_error = 99.281<br/>samples = 78<br/>value = 61.026>, fillcolor="#f1bc96"] ;
286 -> 288 ;
289 [label=<X<SUB>0</SUB> &le; 28.5<br/>squared_error = 87.231<br/>samples = 46<br/>value = 63.174>, fillcolor="#f0b990"] ;
288 -> 289 ;
290 [label=<X<SUB>4</SUB> &le; -0.204<br/>squared_error = 69.454<br/>samples = 14<br/>value = 68.786>, fillcolor="#efb082"] ;
289 -> 290 ;
291 [label=<X<SUB>2</SUB> &le; -0.262<br/>squared_error = 9.6<br/>samples = 5<br/>value = 61.0>, fillcolor="#f1bc96"] ;
290 -> 291 ;
292 [label=<X<SUB>0</SUB> &le; 15.5<br/>squared_error = 4.188<br/>samples = 4<br/>value = 62.25>, fillcolor="#f1ba93"] ;
291 -> 292 ;
293 [label=<squared_error = 0.0<br/>samples = 1<br/>value = 59.0>, fillcolor="#f2bf9b"] ;
292 -> 293 ;
294 [label=<X<SUB>3</SUB> &le; -0.22<br/>squared_error = 0.889<br/>samples = 3<br/>value = 63.333>, fillcolor="#f0b890"] ;
292 -> 294 ;
295 [label=<squared_error = 0.0<br/>samples = 1<br/>value = 62.0>, fillcolor="#f1ba93"] ;
294 -> 295 ;
296 [label=<squared_error = 0.0<br/>samples = 2<br/>value = 64.0>, fillcolor="#f0b78e"] ;
294 -> 296 ;
297 [label=<squared_error = 0.0<br/>samples = 1<br/>value = 56.0>, fillcolor="#f3c4a2"] ;
291 -> 297 ;
298 [label=<X<SUB>3</SUB> &le; -0.216<br/>squared_error = 50.321<br/>samples = 9<br/>value = 73.111>, fillcolor="#eda977"] ;
290 -> 298 ;
299 [label=<X<SUB>0</SUB> &le; 12.0<br/>squared_error = 33.917<br/>samples = 6<br/>value = 76.5>, fillcolor="#eca36f"] ;
298 -> 299 ;
300 [label=<X<SUB>1</SUB> &le; 0.026<br/>squared_error = 1.0<br/>samples = 2<br/>value = 69.0>, fillcolor="#efaf82"] ;
299 -> 300 ;
301 [label=<squared_error = 0.0<br/>samples = 1<br/>value = 70.0>, fillcolor="#eeae7f"] ;
300 -> 301 ;
302 [label=<squared_error = 0.0<br/>samples = 1<br/>value = 68.0>, fillcolor="#efb184"] ;
300 -> 302 ;
303 [label=<X<SUB>3</SUB> &le; -0.217<br/>squared_error = 8.188<br/>samples = 4<br/>value = 80.25>, fillcolor="#eb9d65"] ;
299 -> 303 ;
304 [label=<X<SUB>2</SUB> &le; -0.25<br/>squared_error = 0.889<br/>samples = 3<br/>value = 78.667>, fillcolor="#eba069"] ;
303 -> 304 ;
305 [label=<squared_error = 0.0<br/>samples = 2<br/>value = 78.0>, fillcolor="#eca16b"] ;
304 -> 305 ;
306 [label=<squared_error = 0.0<br/>samples = 1<br/>value = 80.0>, fillcolor="#eb9e66"] ;
304 -> 306 ;
307 [label=<squared_error = 0.0<br/>samples = 1<br/>value = 85.0>, fillcolor="#e9965a"] ;
303 -> 307 ;
308 [label=<X<SUB>3</SUB> &le; -0.216<br/>squared_error = 14.222<br/>samples = 3<br/>value = 66.333>, fillcolor="#efb488"] ;
298 -> 308 ;
309 [label=<squared_error = 0.0<br/>samples = 2<br/>value = 69.0>, fillcolor="#efaf82"] ;
308 -> 309 ;
310 [label=<squared_error = 0.0<br/>samples = 1<br/>value = 61.0>, fillcolor="#f1bc96"] ;
308 -> 310 ;
311 [label=<X<SUB>0</SUB> &le; 30.5<br/>squared_error = 75.202<br/>samples = 32<br/>value = 60.719>, fillcolor="#f1bc96"] ;
289 -> 311 ;
312 [label=<X<SUB>1</SUB> &le; 0.038<br/>squared_error = 47.889<br/>samples = 18<br/>value = 57.333>, fillcolor="#f2c29f"] ;
311 -> 312 ;
313 [label=<X<SUB>1</SUB> &le; -0.066<br/>squared_error = 27.716<br/>samples = 15<br/>value = 59.533>, fillcolor="#f2be99"] ;
312 -> 313 ;
314 [label=<X<SUB>2</SUB> &le; -0.279<br/>squared_error = 10.806<br/>samples = 6<br/>value = 63.833>, fillcolor="#f0b78f"] ;
313 -> 314 ;
315 [label=<X<SUB>2</SUB> &le; -0.286<br/>squared_error = 14.0<br/>samples = 3<br/>value = 62.0>, fillcolor="#f1ba93"] ;
314 -> 315 ;
316 [label=<squared_error = 0.0<br/>samples = 1<br/>value = 66.0>, fillcolor="#f0b489"] ;
315 -> 316 ;
317 [label=<X<SUB>3</SUB> &le; -0.223<br/>squared_error = 9.0<br/>samples = 2<br/>value = 60.0>, fillcolor="#f2be98"] ;
315 -> 317 ;
318 [label=<squared_error = 0.0<br/>samples = 1<br/>value = 57.0>, fillcolor="#f2c2a0"] ;
317 -> 318 ;
319 [label=<squared_error = 0.0<br/>samples = 1<br/>value = 63.0>, fillcolor="#f1b991"] ;
317 -> 319 ;
320 [label=<X<SUB>0</SUB> &le; 29.5<br/>squared_error = 0.889<br/>samples = 3<br/>value = 65.667>, fillcolor="#f0b58a"] ;
314 -> 320 ;
321 [label=<squared_error = 0.0<br/>samples = 2<br/>value = 65.0>, fillcolor="#f0b68c"] ;
320 -> 321 ;
322 [label=<squared_error = 0.0<br/>samples = 1<br/>value = 67.0>, fillcolor="#efb287"] ;
320 -> 322 ;
323 [label=<X<SUB>3</SUB> &le; -0.255<br/>squared_error = 18.444<br/>samples = 9<br/>value = 56.667>, fillcolor="#f3c3a1"] ;
313 -> 323 ;
324 [label=<squared_error = 0.0<br/>samples = 2<br/>value = 51.0>, fillcolor="#f4ccaf"] ;
323 -> 324 ;
325 [label=<X<SUB>0</SUB> &le; 29.5<br/>squared_error = 11.918<br/>samples = 7<br/>value = 58.286>, fillcolor="#f2c09d"] ;
323 -> 325 ;
326 [label=<X<SUB>1</SUB> &le; 0.018<br/>squared_error = 6.188<br/>samples = 4<br/>value = 60.75>, fillcolor="#f1bc96"] ;
325 -> 326 ;
327 [label=<squared_error = 0.0<br/>samples = 1<br/>value = 57.0>, fillcolor="#f2c2a0"] ;
326 -> 327 ;
328 [label=<X<SUB>1</SUB> &le; 0.028<br/>squared_error = 2.0<br/>samples = 3<br/>value = 62.0>, fillcolor="#f1ba93"] ;
326 -> 328 ;
329 [label=<squared_error = 0.0<br/>samples = 1<br/>value = 64.0>, fillcolor="#f0b78e"] ;
328 -> 329 ;
330 [label=<squared_error = 0.0<br/>samples = 2<br/>value = 61.0>, fillcolor="#f1bc96"] ;
328 -> 330 ;
331 [label=<X<SUB>1</SUB> &le; -0.023<br/>squared_error = 0.667<br/>samples = 3<br/>value = 55.0>, fillcolor="#f3c6a5"] ;
325 -> 331 ;
332 [label=<squared_error = 0.0<br/>samples = 1<br/>value = 54.0>, fillcolor="#f3c7a7"] ;
331 -> 332 ;
333 [label=<X<SUB>3</SUB> &le; -0.22<br/>squared_error = 0.25<br/>samples = 2<br/>value = 55.5>, fillcolor="#f3c5a4"] ;
331 -> 333 ;
334 [label=<squared_error = 0.0<br/>samples = 1<br/>value = 56.0>, fillcolor="#f3c4a2"] ;
333 -> 334 ;
335 [label=<squared_error = 0.0<br/>samples = 1<br/>value = 55.0>, fillcolor="#f3c6a5"] ;
333 -> 335 ;
336 [label=<X<SUB>4</SUB> &le; -0.207<br/>squared_error = 3.556<br/>samples = 3<br/>value = 46.333>, fillcolor="#f6d3ba"] ;
312 -> 336 ;
337 [label=<squared_error = 0.0<br/>samples = 1<br/>value = 49.0>, fillcolor="#f5cfb4"] ;
336 -> 337 ;
338 [label=<squared_error = 0.0<br/>samples = 2<br/>value = 45.0>, fillcolor="#f6d6be"] ;
336 -> 338 ;
339 [label=<X<SUB>4</SUB> &le; -0.15<br/>squared_error = 76.638<br/>samples = 14<br/>value = 65.071>, fillcolor="#f0b68c"] ;
311 -> 339 ;
340 [label=<X<SUB>3</SUB> &le; -0.217<br/>squared_error = 57.639<br/>samples = 12<br/>value = 67.167>, fillcolor="#efb286"] ;
339 -> 340 ;
341 [label=<X<SUB>2</SUB> &le; -0.276<br/>squared_error = 6.5<br/>samples = 4<br/>value = 73.0>, fillcolor="#eda978"] ;
340 -> 341 ;
342 [label=<squared_error = 0.0<br/>samples = 1<br/>value = 77.0>, fillcolor="#eca26e"] ;
341 -> 342 ;
343 [label=<X<SUB>1</SUB> &le; -0.029<br/>squared_error = 1.556<br/>samples = 3<br/>value = 71.667>, fillcolor="#eeab7b"] ;
341 -> 343 ;
344 [label=<X<SUB>1</SUB> &le; -0.109<br/>squared_error = 0.25<br/>samples = 2<br/>value = 72.5>, fillcolor="#edaa79"] ;
343 -> 344 ;
345 [label=<squared_error = 0.0<br/>samples = 1<br/>value = 72.0>, fillcolor="#eeaa7a"] ;
344 -> 345 ;
346 [label=<squared_error = 0.0<br/>samples = 1<br/>value = 73.0>, fillcolor="#eda978"] ;
344 -> 346 ;
347 [label=<squared_error = 0.0<br/>samples = 1<br/>value = 70.0>, fillcolor="#eeae7f"] ;
343 -> 347 ;
348 [label=<X<SUB>2</SUB> &le; -0.273<br/>squared_error = 57.688<br/>samples = 8<br/>value = 64.25>, fillcolor="#f0b78e"] ;
340 -> 348 ;
349 [label=<squared_error = 88.667<br/>samples = 3<br/>value = 66.0>, fillcolor="#f0b489"] ;
348 -> 349 ;
350 [label=<X<SUB>4</SUB> &le; -0.203<br/>squared_error = 36.16<br/>samples = 5<br/>value = 63.2>, fillcolor="#f0b990"] ;
348 -> 350 ;
351 [label=<squared_error = 0.0<br/>samples = 1<br/>value = 58.0>, fillcolor="#f2c19d"] ;
350 -> 351 ;
352 [label=<squared_error = 36.75<br/>samples = 4<br/>value = 64.5>, fillcolor="#f0b68d"] ;
350 -> 352 ;
353 [label=<X<SUB>2</SUB> &le; -0.272<br/>squared_error = 6.25<br/>samples = 2<br/>value = 52.5>, fillcolor="#f4caab"] ;
339 -> 353 ;
354 [label=<squared_error = 0.0<br/>samples = 1<br/>value = 55.0>, fillcolor="#f3c6a5"] ;
353 -> 354 ;
355 [label=<squared_error = 0.0<br/>samples = 1<br/>value = 50.0>, fillcolor="#f5ceb1"] ;
353 -> 355 ;
356 [label=<X<SUB>1</SUB> &le; -0.138<br/>squared_error = 100.434<br/>samples = 32<br/>value = 57.938>, fillcolor="#f2c19d"] ;
288 -> 356 ;
357 [label=<X<SUB>2</SUB> &le; -0.27<br/>squared_error = 22.688<br/>samples = 4<br/>value = 45.75>, fillcolor="#f6d4bc"] ;
356 -> 357 ;
358 [label=<X<SUB>3</SUB> &le; -0.214<br/>squared_error = 3.556<br/>samples = 3<br/>value = 48.333>, fillcolor="#f5d0b5"] ;
357 -> 358 ;
359 [label=<squared_error = 0.0<br/>samples = 2<br/>value = 47.0>, fillcolor="#f6d2b9"] ;
358 -> 359 ;
360 [label=<squared_error = 0.0<br/>samples = 1<br/>value = 51.0>, fillcolor="#f4ccaf"] ;
358 -> 360 ;
361 [label=<squared_error = 0.0<br/>samples = 1<br/>value = 38.0>, fillcolor="#f9e1cf"] ;
357 -> 361 ;
362 [label=<X<SUB>0</SUB> &le; 11.5<br/>squared_error = 87.29<br/>samples = 28<br/>value = 59.679>, fillcolor="#f2be99"] ;
356 -> 362 ;
363 [label=<squared_error = 0.0<br/>samples = 1<br/>value = 79.0>, fillcolor="#eb9f69"] ;
362 -> 363 ;
364 [label=<X<SUB>0</SUB> &le; 16.0<br/>squared_error = 76.184<br/>samples = 27<br/>value = 58.963>, fillcolor="#f2bf9b"] ;
362 -> 364 ;
365 [label=<X<SUB>2</SUB> &le; -0.271<br/>squared_error = 113.556<br/>samples = 3<br/>value = 47.667>, fillcolor="#f6d1b7"] ;
364 -> 365 ;
366 [label=<squared_error = 0.0<br/>samples = 1<br/>value = 33.0>, fillcolor="#fae9dc"] ;
365 -> 366 ;
367 [label=<X<SUB>0</SUB> &le; 13.5<br/>squared_error = 9.0<br/>samples = 2<br/>value = 55.0>, fillcolor="#f3c6a5"] ;
365 -> 367 ;
368 [label=<squared_error = 0.0<br/>samples = 1<br/>value = 52.0>, fillcolor="#f4caac"] ;
367 -> 368 ;
369 [label=<squared_error = 0.0<br/>samples = 1<br/>value = 58.0>, fillcolor="#f2c19d"] ;
367 -> 369 ;
370 [label=<X<SUB>2</SUB> &le; -0.266<br/>squared_error = 53.568<br/>samples = 24<br/>value = 60.375>, fillcolor="#f1bd97"] ;
364 -> 370 ;
371 [label=<X<SUB>3</SUB> &le; -0.213<br/>squared_error = 44.82<br/>samples = 23<br/>value = 59.696>, fillcolor="#f2be99"] ;
370 -> 371 ;
372 [label=<X<SUB>0</SUB> &le; 30.0<br/>squared_error = 20.667<br/>samples = 9<br/>value = 62.0>, fillcolor="#f1ba93"] ;
371 -> 372 ;
373 [label=<X<SUB>0</SUB> &le; 27.0<br/>squared_error = 13.556<br/>samples = 3<br/>value = 56.667>, fillcolor="#f3c3a1"] ;
372 -> 373 ;
374 [label=<squared_error = 0.0<br/>samples = 1<br/>value = 61.0>, fillcolor="#f1bc96"] ;
373 -> 374 ;
375 [label=<X<SUB>1</SUB> &le; 0.038<br/>squared_error = 6.25<br/>samples = 2<br/>value = 54.5>, fillcolor="#f3c6a6"] ;
373 -> 375 ;
376 [label=<squared_error = 0.0<br/>samples = 1<br/>value = 57.0>, fillcolor="#f2c2a0"] ;
375 -> 376 ;
377 [label=<squared_error = 0.0<br/>samples = 1<br/>value = 52.0>, fillcolor="#f4caac"] ;
375 -> 377 ;
378 [label=<X<SUB>4</SUB> &le; -0.202<br/>squared_error = 2.889<br/>samples = 6<br/>value = 64.667>, fillcolor="#f0b68d"] ;
372 -> 378 ;
379 [label=<squared_error = 0.0<br/>samples = 1<br/>value = 61.0>, fillcolor="#f1bc96"] ;
378 -> 379 ;
380 [label=<X<SUB>4</SUB> &le; -0.202<br/>squared_error = 0.24<br/>samples = 5<br/>value = 65.4>, fillcolor="#f0b58b"] ;
378 -> 380 ;
381 [label=<squared_error = 0.0<br/>samples = 3<br/>value = 65.0>, fillcolor="#f0b68c"] ;
380 -> 381 ;
382 [label=<squared_error = 0.0<br/>samples = 2<br/>value = 66.0>, fillcolor="#f0b489"] ;
380 -> 382 ;
383 [label=<X<SUB>1</SUB> &le; 0.038<br/>squared_error = 54.74<br/>samples = 14<br/>value = 58.214>, fillcolor="#f2c09d"] ;
371 -> 383 ;
384 [label=<X<SUB>1</SUB> &le; 0.037<br/>squared_error = 19.686<br/>samples = 11<br/>value = 60.364>, fillcolor="#f1bd97"] ;
383 -> 384 ;
385 [label=<X<SUB>0</SUB> &le; 30.5<br/>squared_error = 3.837<br/>samples = 7<br/>value = 62.143>, fillcolor="#f1ba93"] ;
384 -> 385 ;
386 [label=<X<SUB>4</SUB> &le; -0.196<br/>squared_error = 3.688<br/>samples = 4<br/>value = 63.25>, fillcolor="#f0b890"] ;
385 -> 386 ;
387 [label=<X<SUB>4</SUB> &le; -0.2<br/>squared_error = 0.222<br/>samples = 3<br/>value = 64.333>, fillcolor="#f0b78d"] ;
386 -> 387 ;
388 [label=<squared_error = 0.0<br/>samples = 1<br/>value = 65.0>, fillcolor="#f0b68c"] ;
387 -> 388 ;
389 [label=<squared_error = 0.0<br/>samples = 2<br/>value = 64.0>, fillcolor="#f0b78e"] ;
387 -> 389 ;
390 [label=<squared_error = 0.0<br/>samples = 1<br/>value = 60.0>, fillcolor="#f2be98"] ;
386 -> 390 ;
391 [label=<X<SUB>1</SUB> &le; 0.037<br/>squared_error = 0.222<br/>samples = 3<br/>value = 60.667>, fillcolor="#f1bd97"] ;
385 -> 391 ;
392 [label=<squared_error = 0.0<br/>samples = 2<br/>value = 61.0>, fillcolor="#f1bc96"] ;
391 -> 392 ;
393 [label=<squared_error = 0.0<br/>samples = 1<br/>value = 60.0>, fillcolor="#f2be98"] ;
391 -> 393 ;
394 [label=<X<SUB>0</SUB> &le; 24.5<br/>squared_error = 32.188<br/>samples = 4<br/>value = 57.25>, fillcolor="#f2c29f"] ;
384 -> 394 ;
395 [label=<squared_error = 16.0<br/>samples = 2<br/>value = 59.0>, fillcolor="#f2bf9b"] ;
394 -> 395 ;
396 [label=<squared_error = 42.25<br/>samples = 2<br/>value = 55.5>, fillcolor="#f3c5a4"] ;
394 -> 396 ;
397 [label=<squared_error = 104.222<br/>samples = 3<br/>value = 50.333>, fillcolor="#f5cdb0"] ;
383 -> 397 ;
398 [label=<squared_error = 0.0<br/>samples = 1<br/>value = 76.0>, fillcolor="#eca470"] ;
370 -> 398 ;
399 [label=<X<SUB>2</SUB> &le; -0.369<br/>squared_error = 118.75<br/>samples = 114<br/>value = 65.711>, fillcolor="#f0b48a"] ;
275 -> 399 ;
400 [label=<X<SUB>1</SUB> &le; 0.013<br/>squared_error = 38.551<br/>samples = 14<br/>value = 72.143>, fillcolor="#eeaa7a"] ;
399 -> 400 ;
401 [label=<X<SUB>4</SUB> &le; -0.122<br/>squared_error = 4.0<br/>samples = 2<br/>value = 84.0>, fillcolor="#ea975c"] ;
400 -> 401 ;
402 [label=<squared_error = 0.0<br/>samples = 1<br/>value = 82.0>, fillcolor="#ea9b61"] ;
401 -> 402 ;
403 [label=<squared_error = 0.0<br/>samples = 1<br/>value = 86.0>, fillcolor="#e99457"] ;
401 -> 403 ;
404 [label=<X<SUB>1</SUB> &le; 0.02<br/>squared_error = 16.972<br/>samples = 12<br/>value = 70.167>, fillcolor="#eead7f"] ;
400 -> 404 ;
405 [label=<X<SUB>3</SUB> &le; -0.08<br/>squared_error = 8.926<br/>samples = 11<br/>value = 69.273>, fillcolor="#eeaf81"] ;
404 -> 405 ;
406 [label=<X<SUB>2</SUB> &le; -0.376<br/>squared_error = 0.556<br/>samples = 6<br/>value = 70.667>, fillcolor="#eead7e"] ;
405 -> 406 ;
407 [label=<X<SUB>4</SUB> &le; -0.084<br/>squared_error = 0.222<br/>samples = 3<br/>value = 71.333>, fillcolor="#eeac7c"] ;
406 -> 407 ;
408 [label=<squared_error = 0.0<br/>samples = 1<br/>value = 72.0>, fillcolor="#eeaa7a"] ;
407 -> 408 ;
409 [label=<squared_error = 0.0<br/>samples = 2<br/>value = 71.0>, fillcolor="#eeac7d"] ;
407 -> 409 ;
410 [label=<squared_error = 0.0<br/>samples = 3<br/>value = 70.0>, fillcolor="#eeae7f"] ;
406 -> 410 ;
411 [label=<X<SUB>3</SUB> &le; -0.079<br/>squared_error = 13.84<br/>samples = 5<br/>value = 67.6>, fillcolor="#efb185"] ;
405 -> 411 ;
412 [label=<squared_error = 0.0<br/>samples = 1<br/>value = 61.0>, fillcolor="#f1bc96"] ;
411 -> 412 ;
413 [label=<X<SUB>1</SUB> &le; 0.014<br/>squared_error = 3.688<br/>samples = 4<br/>value = 69.25>, fillcolor="#eeaf81"] ;
411 -> 413 ;
414 [label=<squared_error = 0.0<br/>samples = 1<br/>value = 66.0>, fillcolor="#f0b489"] ;
413 -> 414 ;
415 [label=<X<SUB>1</SUB> &le; 0.014<br/>squared_error = 0.222<br/>samples = 3<br/>value = 70.333>, fillcolor="#eead7e"] ;
413 -> 415 ;
416 [label=<squared_error = 0.0<br/>samples = 1<br/>value = 71.0>, fillcolor="#eeac7d"] ;
415 -> 416 ;
417 [label=<squared_error = 0.0<br/>samples = 2<br/>value = 70.0>, fillcolor="#eeae7f"] ;
415 -> 417 ;
418 [label=<squared_error = 0.0<br/>samples = 1<br/>value = 80.0>, fillcolor="#eb9e66"] ;
404 -> 418 ;
419 [label=<X<SUB>2</SUB> &le; -0.297<br/>squared_error = 123.374<br/>samples = 100<br/>value = 64.81>, fillcolor="#f0b68c"] ;
399 -> 419 ;
420 [label=<X<SUB>4</SUB> &le; -0.209<br/>squared_error = 142.824<br/>samples = 67<br/>value = 62.836>, fillcolor="#f1b991"] ;
419 -> 420 ;
421 [label=<X<SUB>2</SUB> &le; -0.302<br/>squared_error = 116.938<br/>samples = 8<br/>value = 49.75>, fillcolor="#f5ceb2"] ;
420 -> 421 ;
422 [label=<X<SUB>0</SUB> &le; 17.5<br/>squared_error = 60.472<br/>samples = 6<br/>value = 46.167>, fillcolor="#f6d4bb"] ;
421 -> 422 ;
423 [label=<squared_error = 0.0<br/>samples = 1<br/>value = 63.0>, fillcolor="#f1b991"] ;
422 -> 423 ;
424 [label=<X<SUB>0</SUB> &le; 27.5<br/>squared_error = 4.56<br/>samples = 5<br/>value = 42.8>, fillcolor="#f7d9c3"] ;
422 -> 424 ;
425 [label=<X<SUB>1</SUB> &le; 0.016<br/>squared_error = 1.188<br/>samples = 4<br/>value = 43.75>, fillcolor="#f7d8c1"] ;
424 -> 425 ;
426 [label=<X<SUB>4</SUB> &le; -0.213<br/>squared_error = 0.222<br/>samples = 3<br/>value = 44.333>, fillcolor="#f7d7c0"] ;
425 -> 426 ;
427 [label=<squared_error = 0.0<br/>samples = 2<br/>value = 44.0>, fillcolor="#f7d7c0"] ;
426 -> 427 ;
428 [label=<squared_error = 0.0<br/>samples = 1<br/>value = 45.0>, fillcolor="#f6d6be"] ;
426 -> 428 ;
429 [label=<squared_error = 0.0<br/>samples = 1<br/>value = 42.0>, fillcolor="#f7dac5"] ;
425 -> 429 ;
430 [label=<squared_error = 0.0<br/>samples = 1<br/>value = 39.0>, fillcolor="#f8dfcd"] ;
424 -> 430 ;
431 [label=<X<SUB>4</SUB> &le; -0.212<br/>squared_error = 132.25<br/>samples = 2<br/>value = 60.5>, fillcolor="#f1bd97"] ;
421 -> 431 ;
432 [label=<squared_error = 0.0<br/>samples = 1<br/>value = 72.0>, fillcolor="#eeaa7a"] ;
431 -> 432 ;
433 [label=<squared_error = 0.0<br/>samples = 1<br/>value = 49.0>, fillcolor="#f5cfb4"] ;
431 -> 433 ;
434 [label=<X<SUB>0</SUB> &le; 19.5<br/>squared_error = 119.967<br/>samples = 59<br/>value = 64.61>, fillcolor="#f0b68d"] ;
420 -> 434 ;
435 [label=<X<SUB>3</SUB> &le; -0.113<br/>squared_error = 98.313<br/>samples = 21<br/>value = 61.143>, fillcolor="#f1bc95"] ;
434 -> 435 ;
436 [label=<X<SUB>3</SUB> &le; -0.117<br/>squared_error = 76.679<br/>samples = 14<br/>value = 65.5>, fillcolor="#f0b58a"] ;
435 -> 436 ;
437 [label=<X<SUB>3</SUB> &le; -0.137<br/>squared_error = 67.479<br/>samples = 13<br/>value = 64.462>, fillcolor="#f0b68d"] ;
436 -> 437 ;
438 [label=<X<SUB>1</SUB> &le; -0.017<br/>squared_error = 28.765<br/>samples = 9<br/>value = 67.111>, fillcolor="#efb286"] ;
437 -> 438 ;
439 [label=<X<SUB>4</SUB> &le; -0.198<br/>squared_error = 32.667<br/>samples = 3<br/>value = 62.0>, fillcolor="#f1ba93"] ;
438 -> 439 ;
440 [label=<squared_error = 0.0<br/>samples = 1<br/>value = 70.0>, fillcolor="#eeae7f"] ;
439 -> 440 ;
441 [label=<X<SUB>2</SUB> &le; -0.339<br/>squared_error = 1.0<br/>samples = 2<br/>value = 58.0>, fillcolor="#f2c19d"] ;
439 -> 441 ;
442 [label=<squared_error = 0.0<br/>samples = 1<br/>value = 59.0>, fillcolor="#f2bf9b"] ;
441 -> 442 ;
443 [label=<squared_error = 0.0<br/>samples = 1<br/>value = 57.0>, fillcolor="#f2c2a0"] ;
441 -> 443 ;
444 [label=<X<SUB>3</SUB> &le; -0.199<br/>squared_error = 7.222<br/>samples = 6<br/>value = 69.667>, fillcolor="#eeae80"] ;
438 -> 444 ;
445 [label=<squared_error = 0.0<br/>samples = 1<br/>value = 64.0>, fillcolor="#f0b78e"] ;
444 -> 445 ;
446 [label=<X<SUB>4</SUB> &le; -0.069<br/>squared_error = 0.96<br/>samples = 5<br/>value = 70.8>, fillcolor="#eeac7d"] ;
444 -> 446 ;
447 [label=<X<SUB>2</SUB> &le; -0.344<br/>squared_error = 0.188<br/>samples = 4<br/>value = 71.25>, fillcolor="#eeac7c"] ;
446 -> 447 ;
448 [label=<squared_error = 0.0<br/>samples = 2<br/>value = 71.0>, fillcolor="#eeac7d"] ;
447 -> 448 ;
449 [label=<X<SUB>0</SUB> &le; 3.5<br/>squared_error = 0.25<br/>samples = 2<br/>value = 71.5>, fillcolor="#eeab7b"] ;
447 -> 449 ;
450 [label=<squared_error = 0.0<br/>samples = 1<br/>value = 71.0>, fillcolor="#eeac7d"] ;
449 -> 450 ;
451 [label=<squared_error = 0.0<br/>samples = 1<br/>value = 72.0>, fillcolor="#eeaa7a"] ;
449 -> 451 ;
452 [label=<squared_error = 0.0<br/>samples = 1<br/>value = 69.0>, fillcolor="#efaf82"] ;
446 -> 452 ;
453 [label=<X<SUB>4</SUB> &le; -0.123<br/>squared_error = 103.25<br/>samples = 4<br/>value = 58.5>, fillcolor="#f2c09c"] ;
437 -> 453 ;
454 [label=<X<SUB>2</SUB> &le; -0.324<br/>squared_error = 1.556<br/>samples = 3<br/>value = 52.667>, fillcolor="#f4c9ab"] ;
453 -> 454 ;
455 [label=<X<SUB>3</SUB> &le; -0.135<br/>squared_error = 0.25<br/>samples = 2<br/>value = 53.5>, fillcolor="#f4c8a9"] ;
454 -> 455 ;
456 [label=<squared_error = 0.0<br/>samples = 1<br/>value = 53.0>, fillcolor="#f4c9aa"] ;
455 -> 456 ;
457 [label=<squared_error = 0.0<br/>samples = 1<br/>value = 54.0>, fillcolor="#f3c7a7"] ;
455 -> 457 ;
458 [label=<squared_error = 0.0<br/>samples = 1<br/>value = 51.0>, fillcolor="#f4ccaf"] ;
454 -> 458 ;
459 [label=<squared_error = 0.0<br/>samples = 1<br/>value = 76.0>, fillcolor="#eca470"] ;
453 -> 459 ;
460 [label=<squared_error = 0.0<br/>samples = 1<br/>value = 79.0>, fillcolor="#eb9f69"] ;
436 -> 460 ;
461 [label=<X<SUB>1</SUB> &le; 0.016<br/>squared_error = 27.673<br/>samples = 7<br/>value = 52.429>, fillcolor="#f4caab"] ;
435 -> 461 ;
462 [label=<X<SUB>3</SUB> &le; -0.093<br/>squared_error = 7.688<br/>samples = 4<br/>value = 48.25>, fillcolor="#f5d0b6"] ;
461 -> 462 ;
463 [label=<X<SUB>3</SUB> &le; -0.105<br/>squared_error = 0.25<br/>samples = 2<br/>value = 45.5>, fillcolor="#f6d5bd"] ;
462 -> 463 ;
464 [label=<squared_error = 0.0<br/>samples = 1<br/>value = 46.0>, fillcolor="#f6d4bb"] ;
463 -> 464 ;
465 [label=<squared_error = 0.0<br/>samples = 1<br/>value = 45.0>, fillcolor="#f6d6be"] ;
463 -> 465 ;
466 [label=<squared_error = 0.0<br/>samples = 2<br/>value = 51.0>, fillcolor="#f4ccaf"] ;
462 -> 466 ;
467 [label=<squared_error = 0.0<br/>samples = 3<br/>value = 58.0>, fillcolor="#f2c19d"] ;
461 -> 467 ;
468 [label=<X<SUB>0</SUB> &le; 23.0<br/>squared_error = 121.618<br/>samples = 38<br/>value = 66.526>, fillcolor="#efb388"] ;
434 -> 468 ;
469 [label=<X<SUB>4</SUB> &le; -0.176<br/>squared_error = 21.36<br/>samples = 5<br/>value = 78.2>, fillcolor="#eca16b"] ;
468 -> 469 ;
470 [label=<X<SUB>3</SUB> &le; -0.145<br/>squared_error = 7.688<br/>samples = 4<br/>value = 76.25>, fillcolor="#eca470"] ;
469 -> 470 ;
471 [label=<squared_error = 0.0<br/>samples = 2<br/>value = 79.0>, fillcolor="#eb9f69"] ;
470 -> 471 ;
472 [label=<X<SUB>1</SUB> &le; -0.022<br/>squared_error = 0.25<br/>samples = 2<br/>value = 73.5>, fillcolor="#eda876"] ;
470 -> 472 ;
473 [label=<squared_error = 0.0<br/>samples = 1<br/>value = 74.0>, fillcolor="#eda775"] ;
472 -> 473 ;
474 [label=<squared_error = 0.0<br/>samples = 1<br/>value = 73.0>, fillcolor="#eda978"] ;
472 -> 474 ;
475 [label=<squared_error = 0.0<br/>samples = 1<br/>value = 86.0>, fillcolor="#e99457"] ;
469 -> 475 ;
476 [label=<X<SUB>4</SUB> &le; -0.085<br/>squared_error = 113.032<br/>samples = 33<br/>value = 64.758>, fillcolor="#f0b68c"] ;
468 -> 476 ;
477 [label=<X<SUB>3</SUB> &le; -0.097<br/>squared_error = 105.84<br/>samples = 32<br/>value = 64.188>, fillcolor="#f0b78e"] ;
476 -> 477 ;
478 [label=<X<SUB>3</SUB> &le; -0.106<br/>squared_error = 122.104<br/>samples = 24<br/>value = 62.25>, fillcolor="#f1ba93"] ;
477 -> 478 ;
479 [label=<X<SUB>3</SUB> &le; -0.109<br/>squared_error = 98.828<br/>samples = 20<br/>value = 64.35>, fillcolor="#f0b78d"] ;
478 -> 479 ;
480 [label=<X<SUB>4</SUB> &le; -0.161<br/>squared_error = 87.301<br/>samples = 17<br/>value = 62.412>, fillcolor="#f1ba92"] ;
479 -> 480 ;
481 [label=<X<SUB>1</SUB> &le; 0.015<br/>squared_error = 66.25<br/>samples = 6<br/>value = 56.5>, fillcolor="#f3c3a1"] ;
480 -> 481 ;
482 [label=<X<SUB>4</SUB> &le; -0.181<br/>squared_error = 28.222<br/>samples = 3<br/>value = 49.667>, fillcolor="#f5ceb2"] ;
481 -> 482 ;
483 [label=<X<SUB>3</SUB> &le; -0.174<br/>squared_error = 9.0<br/>samples = 2<br/>value = 53.0>, fillcolor="#f4c9aa"] ;
482 -> 483 ;
484 [label=<squared_error = 0.0<br/>samples = 1<br/>value = 50.0>, fillcolor="#f5ceb1"] ;
483 -> 484 ;
485 [label=<squared_error = 0.0<br/>samples = 1<br/>value = 56.0>, fillcolor="#f3c4a2"] ;
483 -> 485 ;
486 [label=<squared_error = 0.0<br/>samples = 1<br/>value = 43.0>, fillcolor="#f7d9c3"] ;
482 -> 486 ;
487 [label=<X<SUB>0</SUB> &le; 27.5<br/>squared_error = 10.889<br/>samples = 3<br/>value = 63.333>, fillcolor="#f0b890"] ;
481 -> 487 ;
488 [label=<squared_error = 0.0<br/>samples = 1<br/>value = 59.0>, fillcolor="#f2bf9b"] ;
487 -> 488 ;
489 [label=<X<SUB>4</SUB> &le; -0.193<br/>squared_error = 2.25<br/>samples = 2<br/>value = 65.5>, fillcolor="#f0b58a"] ;
487 -> 489 ;
490 [label=<squared_error = 0.0<br/>samples = 1<br/>value = 64.0>, fillcolor="#f0b78e"] ;
489 -> 490 ;
491 [label=<squared_error = 0.0<br/>samples = 1<br/>value = 67.0>, fillcolor="#efb287"] ;
489 -> 491 ;
492 [label=<X<SUB>4</SUB> &le; -0.134<br/>squared_error = 69.322<br/>samples = 11<br/>value = 65.636>, fillcolor="#f0b58a"] ;
480 -> 492 ;
493 [label=<squared_error = 0.0<br/>samples = 1<br/>value = 89.0>, fillcolor="#e88f50"] ;
492 -> 493 ;
494 [label=<X<SUB>3</SUB> &le; -0.111<br/>squared_error = 16.21<br/>samples = 10<br/>value = 63.3>, fillcolor="#f0b890"] ;
492 -> 494 ;
495 [label=<X<SUB>2</SUB> &le; -0.335<br/>squared_error = 11.432<br/>samples = 9<br/>value = 64.111>, fillcolor="#f0b78e"] ;
494 -> 495 ;
496 [label=<X<SUB>2</SUB> &le; -0.35<br/>squared_error = 2.667<br/>samples = 3<br/>value = 68.0>, fillcolor="#efb184"] ;
495 -> 496 ;
497 [label=<squared_error = 0.0<br/>samples = 1<br/>value = 66.0>, fillcolor="#f0b489"] ;
496 -> 497 ;
498 [label=<X<SUB>3</SUB> &le; -0.114<br/>squared_error = 1.0<br/>samples = 2<br/>value = 69.0>, fillcolor="#efaf82"] ;
496 -> 498 ;
499 [label=<squared_error = 0.0<br/>samples = 1<br/>value = 68.0>, fillcolor="#efb184"] ;
498 -> 499 ;
500 [label=<squared_error = 0.0<br/>samples = 1<br/>value = 70.0>, fillcolor="#eeae7f"] ;
498 -> 500 ;
501 [label=<X<SUB>2</SUB> &le; -0.321<br/>squared_error = 4.472<br/>samples = 6<br/>value = 62.167>, fillcolor="#f1ba93"] ;
495 -> 501 ;
502 [label=<X<SUB>0</SUB> &le; 28.0<br/>squared_error = 0.25<br/>samples = 4<br/>value = 63.5>, fillcolor="#f0b88f"] ;
501 -> 502 ;
503 [label=<squared_error = 0.0<br/>samples = 2<br/>value = 64.0>, fillcolor="#f0b78e"] ;
502 -> 503 ;
504 [label=<squared_error = 0.0<br/>samples = 2<br/>value = 63.0>, fillcolor="#f1b991"] ;
502 -> 504 ;
505 [label=<X<SUB>1</SUB> &le; 0.021<br/>squared_error = 2.25<br/>samples = 2<br/>value = 59.5>, fillcolor="#f2be99"] ;
501 -> 505 ;
506 [label=<squared_error = 0.0<br/>samples = 1<br/>value = 61.0>, fillcolor="#f1bc96"] ;
505 -> 506 ;
507 [label=<squared_error = 0.0<br/>samples = 1<br/>value = 58.0>, fillcolor="#f2c19d"] ;
505 -> 507 ;
508 [label=<squared_error = 0.0<br/>samples = 1<br/>value = 56.0>, fillcolor="#f3c4a2"] ;
494 -> 508 ;
509 [label=<X<SUB>0</SUB> &le; 27.5<br/>squared_error = 22.222<br/>samples = 3<br/>value = 75.333>, fillcolor="#eca572"] ;
479 -> 509 ;
510 [label=<squared_error = 0.0<br/>samples = 1<br/>value = 82.0>, fillcolor="#ea9b61"] ;
509 -> 510 ;
511 [label=<squared_error = 0.0<br/>samples = 2<br/>value = 72.0>, fillcolor="#eeaa7a"] ;
509 -> 511 ;
512 [label=<X<SUB>2</SUB> &le; -0.343<br/>squared_error = 106.188<br/>samples = 4<br/>value = 51.75>, fillcolor="#f4cbad"] ;
478 -> 512 ;
513 [label=<X<SUB>3</SUB> &le; -0.101<br/>squared_error = 2.25<br/>samples = 2<br/>value = 41.5>, fillcolor="#f8dbc7"] ;
512 -> 513 ;
514 [label=<squared_error = 0.0<br/>samples = 1<br/>value = 43.0>, fillcolor="#f7d9c3"] ;
513 -> 514 ;
515 [label=<squared_error = 0.0<br/>samples = 1<br/>value = 40.0>, fillcolor="#f8deca"] ;
513 -> 515 ;
516 [label=<squared_error = 0.0<br/>samples = 2<br/>value = 62.0>, fillcolor="#f1ba93"] ;
512 -> 516 ;
517 [label=<X<SUB>0</SUB> &le; 27.5<br/>squared_error = 12.0<br/>samples = 8<br/>value = 70.0>, fillcolor="#eeae7f"] ;
477 -> 517 ;
518 [label=<X<SUB>3</SUB> &le; -0.075<br/>squared_error = 5.556<br/>samples = 3<br/>value = 66.333>, fillcolor="#efb488"] ;
517 -> 518 ;
519 [label=<squared_error = 0.0<br/>samples = 2<br/>value = 68.0>, fillcolor="#efb184"] ;
518 -> 519 ;
520 [label=<squared_error = 0.0<br/>samples = 1<br/>value = 63.0>, fillcolor="#f1b991"] ;
518 -> 520 ;
521 [label=<X<SUB>4</SUB> &le; -0.096<br/>squared_error = 2.96<br/>samples = 5<br/>value = 72.2>, fillcolor="#edaa7a"] ;
517 -> 521 ;
522 [label=<X<SUB>1</SUB> &le; 0.018<br/>squared_error = 1.25<br/>samples = 4<br/>value = 71.5>, fillcolor="#eeab7b"] ;
521 -> 522 ;
523 [label=<X<SUB>2</SUB> &le; -0.318<br/>squared_error = 0.667<br/>samples = 3<br/>value = 72.0>, fillcolor="#eeaa7a"] ;
522 -> 523 ;
524 [label=<X<SUB>3</SUB> &le; -0.094<br/>squared_error = 0.25<br/>samples = 2<br/>value = 71.5>, fillcolor="#eeab7b"] ;
523 -> 524 ;
525 [label=<squared_error = 0.0<br/>samples = 1<br/>value = 71.0>, fillcolor="#eeac7d"] ;
524 -> 525 ;
526 [label=<squared_error = 0.0<br/>samples = 1<br/>value = 72.0>, fillcolor="#eeaa7a"] ;
524 -> 526 ;
527 [label=<squared_error = 0.0<br/>samples = 1<br/>value = 73.0>, fillcolor="#eda978"] ;
523 -> 527 ;
528 [label=<squared_error = 0.0<br/>samples = 1<br/>value = 70.0>, fillcolor="#eeae7f"] ;
522 -> 528 ;
529 [label=<squared_error = 0.0<br/>samples = 1<br/>value = 75.0>, fillcolor="#eda673"] ;
521 -> 529 ;
530 [label=<squared_error = 0.0<br/>samples = 1<br/>value = 83.0>, fillcolor="#ea995f"] ;
476 -> 530 ;
531 [label=<X<SUB>3</SUB> &le; -0.116<br/>squared_error = 59.906<br/>samples = 33<br/>value = 68.818>, fillcolor="#efb082"] ;
419 -> 531 ;
532 [label=<X<SUB>3</SUB> &le; -0.21<br/>squared_error = 48.559<br/>samples = 29<br/>value = 70.31>, fillcolor="#eead7e"] ;
531 -> 532 ;
533 [label=<X<SUB>0</SUB> &le; 20.5<br/>squared_error = 78.188<br/>samples = 4<br/>value = 64.75>, fillcolor="#f0b68c"] ;
532 -> 533 ;
534 [label=<squared_error = 0.0<br/>samples = 2<br/>value = 73.0>, fillcolor="#eda978"] ;
533 -> 534 ;
535 [label=<X<SUB>0</SUB> &le; 29.5<br/>squared_error = 20.25<br/>samples = 2<br/>value = 56.5>, fillcolor="#f3c3a1"] ;
533 -> 535 ;
536 [label=<squared_error = 0.0<br/>samples = 1<br/>value = 61.0>, fillcolor="#f1bc96"] ;
535 -> 536 ;
537 [label=<squared_error = 0.0<br/>samples = 1<br/>value = 52.0>, fillcolor="#f4caac"] ;
535 -> 537 ;
538 [label=<X<SUB>1</SUB> &le; -0.13<br/>squared_error = 38.08<br/>samples = 25<br/>value = 71.2>, fillcolor="#eeac7c"] ;
532 -> 538 ;
539 [label=<squared_error = 0.0<br/>samples = 1<br/>value = 84.0>, fillcolor="#ea975c"] ;
538 -> 539 ;
540 [label=<X<SUB>0</SUB> &le; 5.0<br/>squared_error = 32.556<br/>samples = 24<br/>value = 70.667>, fillcolor="#eead7e"] ;
538 -> 540 ;
541 [label=<X<SUB>2</SUB> &le; -0.271<br/>squared_error = 24.25<br/>samples = 4<br/>value = 63.5>, fillcolor="#f0b88f"] ;
540 -> 541 ;
542 [label=<squared_error = 0.0<br/>samples = 1<br/>value = 55.0>, fillcolor="#f3c6a5"] ;
541 -> 542 ;
543 [label=<squared_error = 0.222<br/>samples = 3<br/>value = 66.333>, fillcolor="#efb488"] ;
541 -> 543 ;
544 [label=<X<SUB>2</SUB> &le; -0.282<br/>squared_error = 21.89<br/>samples = 20<br/>value = 72.1>, fillcolor="#eeaa7a"] ;
540 -> 544 ;
545 [label=<X<SUB>1</SUB> &le; -0.026<br/>squared_error = 9.36<br/>samples = 5<br/>value = 77.2>, fillcolor="#eca26d"] ;
544 -> 545 ;
546 [label=<squared_error = 0.0<br/>samples = 1<br/>value = 83.0>, fillcolor="#ea995f"] ;
545 -> 546 ;
547 [label=<X<SUB>4</SUB> &le; -0.143<br/>squared_error = 1.188<br/>samples = 4<br/>value = 75.75>, fillcolor="#eca471"] ;
545 -> 547 ;
548 [label=<X<SUB>1</SUB> &le; 0.018<br/>squared_error = 0.222<br/>samples = 3<br/>value = 76.333>, fillcolor="#eca46f"] ;
547 -> 548 ;
549 [label=<squared_error = 0.0<br/>samples = 1<br/>value = 77.0>, fillcolor="#eca26e"] ;
548 -> 549 ;
550 [label=<squared_error = 0.0<br/>samples = 2<br/>value = 76.0>, fillcolor="#eca470"] ;
548 -> 550 ;
551 [label=<squared_error = 0.0<br/>samples = 1<br/>value = 74.0>, fillcolor="#eda775"] ;
547 -> 551 ;
552 [label=<X<SUB>1</SUB> &le; -0.064<br/>squared_error = 14.507<br/>samples = 15<br/>value = 70.4>, fillcolor="#eead7e"] ;
544 -> 552 ;
553 [label=<X<SUB>4</SUB> &le; -0.215<br/>squared_error = 11.36<br/>samples = 5<br/>value = 73.8>, fillcolor="#eda876"] ;
552 -> 553 ;
554 [label=<X<SUB>0</SUB> &le; 19.5<br/>squared_error = 0.222<br/>samples = 3<br/>value = 76.333>, fillcolor="#eca46f"] ;
553 -> 554 ;
555 [label=<squared_error = 0.0<br/>samples = 1<br/>value = 77.0>, fillcolor="#eca26e"] ;
554 -> 555 ;
556 [label=<squared_error = 0.0<br/>samples = 2<br/>value = 76.0>, fillcolor="#eca470"] ;
554 -> 556 ;
557 [label=<X<SUB>0</SUB> &le; 15.5<br/>squared_error = 4.0<br/>samples = 2<br/>value = 70.0>, fillcolor="#eeae7f"] ;
553 -> 557 ;
558 [label=<squared_error = 0.0<br/>samples = 1<br/>value = 72.0>, fillcolor="#eeaa7a"] ;
557 -> 558 ;
559 [label=<squared_error = 0.0<br/>samples = 1<br/>value = 68.0>, fillcolor="#efb184"] ;
557 -> 559 ;
560 [label=<X<SUB>0</SUB> &le; 30.0<br/>squared_error = 7.41<br/>samples = 10<br/>value = 68.7>, fillcolor="#efb082"] ;
552 -> 560 ;
561 [label=<X<SUB>4</SUB> &le; -0.221<br/>squared_error = 3.429<br/>samples = 7<br/>value = 70.0>, fillcolor="#eeae7f"] ;
560 -> 561 ;
562 [label=<X<SUB>3</SUB> &le; -0.144<br/>squared_error = 0.25<br/>samples = 4<br/>value = 68.5>, fillcolor="#efb083"] ;
561 -> 562 ;
563 [label=<squared_error = 0.0<br/>samples = 2<br/>value = 69.0>, fillcolor="#efaf82"] ;
562 -> 563 ;
564 [label=<squared_error = 0.0<br/>samples = 2<br/>value = 68.0>, fillcolor="#efb184"] ;
562 -> 564 ;
565 [label=<X<SUB>4</SUB> &le; -0.204<br/>squared_error = 0.667<br/>samples = 3<br/>value = 72.0>, fillcolor="#eeaa7a"] ;
561 -> 565 ;
566 [label=<squared_error = 0.0<br/>samples = 1<br/>value = 71.0>, fillcolor="#eeac7d"] ;
565 -> 566 ;
567 [label=<X<SUB>3</SUB> &le; -0.202<br/>squared_error = 0.25<br/>samples = 2<br/>value = 72.5>, fillcolor="#edaa79"] ;
565 -> 567 ;
568 [label=<squared_error = 0.0<br/>samples = 1<br/>value = 72.0>, fillcolor="#eeaa7a"] ;
567 -> 568 ;
569 [label=<squared_error = 0.0<br/>samples = 1<br/>value = 73.0>, fillcolor="#eda978"] ;
567 -> 569 ;
570 [label=<X<SUB>4</SUB> &le; -0.212<br/>squared_error = 3.556<br/>samples = 3<br/>value = 65.667>, fillcolor="#f0b58a"] ;
560 -> 570 ;
571 [label=<squared_error = 0.0<br/>samples = 2<br/>value = 67.0>, fillcolor="#efb287"] ;
570 -> 571 ;
572 [label=<squared_error = 0.0<br/>samples = 1<br/>value = 63.0>, fillcolor="#f1b991"] ;
570 -> 572 ;
573 [label=<X<SUB>1</SUB> &le; 0.02<br/>squared_error = 9.0<br/>samples = 4<br/>value = 58.0>, fillcolor="#f2c19d"] ;
531 -> 573 ;
574 [label=<squared_error = 0.0<br/>samples = 2<br/>value = 55.0>, fillcolor="#f3c6a5"] ;
573 -> 574 ;
575 [label=<squared_error = 0.0<br/>samples = 2<br/>value = 61.0>, fillcolor="#f1bc96"] ;
573 -> 575 ;
576 [label=<X<SUB>0</SUB> &le; 6.5<br/>squared_error = 106.839<br/>samples = 63<br/>value = 69.286>, fillcolor="#eeaf81"] ;
2 -> 576 ;
577 [label=<X<SUB>3</SUB> &le; -0.202<br/>squared_error = 151.776<br/>samples = 14<br/>value = 62.286>, fillcolor="#f1ba93"] ;
576 -> 577 ;
578 [label=<X<SUB>4</SUB> &le; -0.186<br/>squared_error = 10.889<br/>samples = 3<br/>value = 45.333>, fillcolor="#f6d5bd"] ;
577 -> 578 ;
579 [label=<squared_error = 0.0<br/>samples = 2<br/>value = 43.0>, fillcolor="#f7d9c3"] ;
578 -> 579 ;
580 [label=<squared_error = 0.0<br/>samples = 1<br/>value = 50.0>, fillcolor="#f5ceb1"] ;
578 -> 580 ;
581 [label=<X<SUB>3</SUB> &le; -0.127<br/>squared_error = 90.446<br/>samples = 11<br/>value = 66.909>, fillcolor="#efb387"] ;
577 -> 581 ;
582 [label=<X<SUB>4</SUB> &le; -0.187<br/>squared_error = 41.802<br/>samples = 9<br/>value = 70.444>, fillcolor="#eead7e"] ;
581 -> 582 ;
583 [label=<X<SUB>4</SUB> &le; -0.189<br/>squared_error = 16.408<br/>samples = 7<br/>value = 73.143>, fillcolor="#eda977"] ;
582 -> 583 ;
584 [label=<X<SUB>1</SUB> &le; 0.292<br/>squared_error = 1.5<br/>samples = 4<br/>value = 76.0>, fillcolor="#eca470"] ;
583 -> 584 ;
585 [label=<X<SUB>2</SUB> &le; -0.295<br/>squared_error = 0.222<br/>samples = 3<br/>value = 75.333>, fillcolor="#eca572"] ;
584 -> 585 ;
586 [label=<squared_error = 0.0<br/>samples = 1<br/>value = 76.0>, fillcolor="#eca470"] ;
585 -> 586 ;
587 [label=<squared_error = 0.0<br/>samples = 2<br/>value = 75.0>, fillcolor="#eda673"] ;
585 -> 587 ;
588 [label=<squared_error = 0.0<br/>samples = 1<br/>value = 78.0>, fillcolor="#eca16b"] ;
584 -> 588 ;
589 [label=<squared_error = 10.889<br/>samples = 3<br/>value = 69.333>, fillcolor="#eeaf81"] ;
583 -> 589 ;
590 [label=<X<SUB>1</SUB> &le; 0.358<br/>squared_error = 16.0<br/>samples = 2<br/>value = 61.0>, fillcolor="#f1bc96"] ;
582 -> 590 ;
591 [label=<squared_error = 0.0<br/>samples = 1<br/>value = 57.0>, fillcolor="#f2c2a0"] ;
590 -> 591 ;
592 [label=<squared_error = 0.0<br/>samples = 1<br/>value = 65.0>, fillcolor="#f0b68c"] ;
590 -> 592 ;
593 [label=<squared_error = 0.0<br/>samples = 2<br/>value = 51.0>, fillcolor="#f4ccaf"] ;
581 -> 593 ;
594 [label=<X<SUB>4</SUB> &le; -0.068<br/>squared_error = 76.0<br/>samples = 49<br/>value = 71.286>, fillcolor="#eeac7c"] ;
576 -> 594 ;
595 [label=<X<SUB>1</SUB> &le; 0.234<br/>squared_error = 62.315<br/>samples = 47<br/>value = 72.064>, fillcolor="#eeaa7a"] ;
594 -> 595 ;
596 [label=<X<SUB>2</SUB> &le; -0.291<br/>squared_error = 79.316<br/>samples = 22<br/>value = 69.045>, fillcolor="#efaf82"] ;
595 -> 596 ;
597 [label=<X<SUB>0</SUB> &le; 14.0<br/>squared_error = 88.444<br/>samples = 9<br/>value = 73.333>, fillcolor="#eda877"] ;
596 -> 597 ;
598 [label=<X<SUB>3</SUB> &le; -0.231<br/>squared_error = 45.188<br/>samples = 4<br/>value = 66.75>, fillcolor="#efb387"] ;
597 -> 598 ;
599 [label=<squared_error = 0.0<br/>samples = 1<br/>value = 57.0>, fillcolor="#f2c2a0"] ;
598 -> 599 ;
600 [label=<X<SUB>1</SUB> &le; 0.19<br/>squared_error = 18.0<br/>samples = 3<br/>value = 70.0>, fillcolor="#eeae7f"] ;
598 -> 600 ;
601 [label=<squared_error = 0.0<br/>samples = 2<br/>value = 73.0>, fillcolor="#eda978"] ;
600 -> 601 ;
602 [label=<squared_error = 0.0<br/>samples = 1<br/>value = 64.0>, fillcolor="#f0b78e"] ;
600 -> 602 ;
603 [label=<X<SUB>4</SUB> &le; -0.122<br/>squared_error = 60.64<br/>samples = 5<br/>value = 78.6>, fillcolor="#eba06a"] ;
597 -> 603 ;
604 [label=<X<SUB>2</SUB> &le; -0.339<br/>squared_error = 18.0<br/>samples = 4<br/>value = 82.0>, fillcolor="#ea9b61"] ;
603 -> 604 ;
605 [label=<squared_error = 0.0<br/>samples = 1<br/>value = 76.0>, fillcolor="#eca470"] ;
604 -> 605 ;
606 [label=<X<SUB>4</SUB> &le; -0.196<br/>squared_error = 8.0<br/>samples = 3<br/>value = 84.0>, fillcolor="#ea975c"] ;
604 -> 606 ;
607 [label=<squared_error = 0.0<br/>samples = 2<br/>value = 82.0>, fillcolor="#ea9b61"] ;
606 -> 607 ;
608 [label=<squared_error = 0.0<br/>samples = 1<br/>value = 88.0>, fillcolor="#e89152"] ;
606 -> 608 ;
609 [label=<squared_error = 0.0<br/>samples = 1<br/>value = 65.0>, fillcolor="#f0b68c"] ;
603 -> 609 ;
610 [label=<X<SUB>1</SUB> &le; 0.04<br/>squared_error = 51.456<br/>samples = 13<br/>value = 66.077>, fillcolor="#f0b489"] ;
596 -> 610 ;
611 [label=<X<SUB>4</SUB> &le; -0.212<br/>squared_error = 20.889<br/>samples = 9<br/>value = 69.667>, fillcolor="#eeae80"] ;
610 -> 611 ;
612 [label=<X<SUB>0</SUB> &le; 24.0<br/>squared_error = 13.734<br/>samples = 8<br/>value = 68.625>, fillcolor="#efb083"] ;
611 -> 612 ;
613 [label=<X<SUB>3</SUB> &le; -0.228<br/>squared_error = 3.6<br/>samples = 5<br/>value = 66.0>, fillcolor="#f0b489"] ;
612 -> 613 ;
614 [label=<squared_error = 0.0<br/>samples = 1<br/>value = 69.0>, fillcolor="#efaf82"] ;
613 -> 614 ;
615 [label=<X<SUB>2</SUB> &le; -0.286<br/>squared_error = 1.688<br/>samples = 4<br/>value = 65.25>, fillcolor="#f0b58b"] ;
613 -> 615 ;
616 [label=<squared_error = 0.0<br/>samples = 3<br/>value = 66.0>, fillcolor="#f0b489"] ;
615 -> 616 ;
617 [label=<squared_error = 0.0<br/>samples = 1<br/>value = 63.0>, fillcolor="#f1b991"] ;
615 -> 617 ;
618 [label=<squared_error = 0.0<br/>samples = 3<br/>value = 73.0>, fillcolor="#eda978"] ;
612 -> 618 ;
619 [label=<squared_error = 0.0<br/>samples = 1<br/>value = 78.0>, fillcolor="#eca16b"] ;
611 -> 619 ;
620 [label=<X<SUB>3</SUB> &le; -0.22<br/>squared_error = 26.0<br/>samples = 4<br/>value = 58.0>, fillcolor="#f2c19d"] ;
610 -> 620 ;
621 [label=<squared_error = 0.0<br/>samples = 1<br/>value = 50.0>, fillcolor="#f5ceb1"] ;
620 -> 621 ;
622 [label=<X<SUB>0</SUB> &le; 21.5<br/>squared_error = 6.222<br/>samples = 3<br/>value = 60.667>, fillcolor="#f1bd97"] ;
620 -> 622 ;
623 [label=<squared_error = 0.0<br/>samples = 1<br/>value = 64.0>, fillcolor="#f0b78e"] ;
622 -> 623 ;
624 [label=<X<SUB>4</SUB> &le; -0.151<br/>squared_error = 1.0<br/>samples = 2<br/>value = 59.0>, fillcolor="#f2bf9b"] ;
622 -> 624 ;
625 [label=<squared_error = 0.0<br/>samples = 1<br/>value = 58.0>, fillcolor="#f2c19d"] ;
624 -> 625 ;
626 [label=<squared_error = 0.0<br/>samples = 1<br/>value = 60.0>, fillcolor="#f2be98"] ;
624 -> 626 ;
627 [label=<X<SUB>2</SUB> &le; -0.258<br/>squared_error = 32.282<br/>samples = 25<br/>value = 74.72>, fillcolor="#eda673"] ;
595 -> 627 ;
628 [label=<X<SUB>3</SUB> &le; -0.211<br/>squared_error = 16.585<br/>samples = 21<br/>value = 76.286>, fillcolor="#eca46f"] ;
627 -> 628 ;
629 [label=<X<SUB>1</SUB> &le; 0.388<br/>squared_error = 1.0<br/>samples = 2<br/>value = 83.0>, fillcolor="#ea995f"] ;
628 -> 629 ;
630 [label=<squared_error = 0.0<br/>samples = 1<br/>value = 82.0>, fillcolor="#ea9b61"] ;
629 -> 630 ;
631 [label=<squared_error = 0.0<br/>samples = 1<br/>value = 84.0>, fillcolor="#ea975c"] ;
629 -> 631 ;
632 [label=<X<SUB>1</SUB> &le; 0.317<br/>squared_error = 12.981<br/>samples = 19<br/>value = 75.579>, fillcolor="#eca571"] ;
628 -> 632 ;
633 [label=<X<SUB>4</SUB> &le; -0.223<br/>squared_error = 10.472<br/>samples = 6<br/>value = 78.833>, fillcolor="#eba069"] ;
632 -> 633 ;
634 [label=<squared_error = 0.0<br/>samples = 1<br/>value = 72.0>, fillcolor="#eeaa7a"] ;
633 -> 634 ;
635 [label=<X<SUB>1</SUB> &le; 0.282<br/>squared_error = 1.36<br/>samples = 5<br/>value = 80.2>, fillcolor="#eb9d66"] ;
633 -> 635 ;
636 [label=<squared_error = 0.0<br/>samples = 1<br/>value = 78.0>, fillcolor="#eca16b"] ;
635 -> 636 ;
637 [label=<X<SUB>1</SUB> &le; 0.314<br/>squared_error = 0.188<br/>samples = 4<br/>value = 80.75>, fillcolor="#eb9d64"] ;
635 -> 637 ;
638 [label=<squared_error = 0.0<br/>samples = 1<br/>value = 80.0>, fillcolor="#eb9e66"] ;
637 -> 638 ;
639 [label=<squared_error = 0.0<br/>samples = 3<br/>value = 81.0>, fillcolor="#eb9c64"] ;
637 -> 639 ;
640 [label=<X<SUB>1</SUB> &le; 0.415<br/>squared_error = 6.994<br/>samples = 13<br/>value = 74.077>, fillcolor="#eda775"] ;
632 -> 640 ;
641 [label=<X<SUB>3</SUB> &le; -0.111<br/>squared_error = 6.531<br/>samples = 7<br/>value = 72.429>, fillcolor="#edaa79"] ;
640 -> 641 ;
642 [label=<X<SUB>3</SUB> &le; -0.176<br/>squared_error = 5.44<br/>samples = 5<br/>value = 73.4>, fillcolor="#eda877"] ;
641 -> 642 ;
643 [label=<squared_error = 0.0<br/>samples = 1<br/>value = 69.0>, fillcolor="#efaf82"] ;
642 -> 643 ;
644 [label=<X<SUB>2</SUB> &le; -0.329<br/>squared_error = 0.75<br/>samples = 4<br/>value = 74.5>, fillcolor="#eda674"] ;
642 -> 644 ;
645 [label=<squared_error = 0.0<br/>samples = 1<br/>value = 73.0>, fillcolor="#eda978"] ;
644 -> 645 ;
646 [label=<squared_error = 0.0<br/>samples = 3<br/>value = 75.0>, fillcolor="#eda673"] ;
644 -> 646 ;
647 [label=<X<SUB>3</SUB> &le; -0.078<br/>squared_error = 1.0<br/>samples = 2<br/>value = 70.0>, fillcolor="#eeae7f"] ;
641 -> 647 ;
648 [label=<squared_error = 0.0<br/>samples = 1<br/>value = 69.0>, fillcolor="#efaf82"] ;
647 -> 648 ;
649 [label=<squared_error = 0.0<br/>samples = 1<br/>value = 71.0>, fillcolor="#eeac7d"] ;
647 -> 649 ;
650 [label=<X<SUB>0</SUB> &le; 26.0<br/>squared_error = 0.667<br/>samples = 6<br/>value = 76.0>, fillcolor="#eca470"] ;
640 -> 650 ;
651 [label=<X<SUB>4</SUB> &le; -0.166<br/>squared_error = 0.25<br/>samples = 4<br/>value = 76.5>, fillcolor="#eca36f"] ;
650 -> 651 ;
652 [label=<squared_error = 0.0<br/>samples = 2<br/>value = 77.0>, fillcolor="#eca26e"] ;
651 -> 652 ;
653 [label=<squared_error = 0.0<br/>samples = 2<br/>value = 76.0>, fillcolor="#eca470"] ;
651 -> 653 ;
654 [label=<squared_error = 0.0<br/>samples = 2<br/>value = 75.0>, fillcolor="#eda673"] ;
650 -> 654 ;
655 [label=<X<SUB>3</SUB> &le; -0.201<br/>squared_error = 34.25<br/>samples = 4<br/>value = 66.5>, fillcolor="#efb388"] ;
627 -> 655 ;
656 [label=<squared_error = 0.0<br/>samples = 1<br/>value = 57.0>, fillcolor="#f2c2a0"] ;
655 -> 656 ;
657 [label=<X<SUB>0</SUB> &le; 21.5<br/>squared_error = 5.556<br/>samples = 3<br/>value = 69.667>, fillcolor="#eeae80"] ;
655 -> 657 ;
658 [label=<squared_error = 0.0<br/>samples = 2<br/>value = 68.0>, fillcolor="#efb184"] ;
657 -> 658 ;
659 [label=<squared_error = 0.0<br/>samples = 1<br/>value = 73.0>, fillcolor="#eda978"] ;
657 -> 659 ;
660 [label=<X<SUB>3</SUB> &le; -0.097<br/>squared_error = 49.0<br/>samples = 2<br/>value = 53.0>, fillcolor="#f4c9aa"] ;
594 -> 660 ;
661 [label=<squared_error = 0.0<br/>samples = 1<br/>value = 46.0>, fillcolor="#f6d4bb"] ;
660 -> 661 ;
662 [label=<squared_error = 0.0<br/>samples = 1<br/>value = 60.0>, fillcolor="#f2be98"] ;
660 -> 662 ;
663 [label=<X<SUB>0</SUB> &le; 30.5<br/>squared_error = 134.858<br/>samples = 492<br/>value = 68.726>, fillcolor="#efb082"] ;
1 -> 663 ;
664 [label=<X<SUB>0</SUB> &le; 0.5<br/>squared_error = 116.11<br/>samples = 391<br/>value = 70.22>, fillcolor="#eead7f"] ;
663 -> 664 ;
665 [label=<X<SUB>2</SUB> &le; -0.219<br/>squared_error = 42.938<br/>samples = 25<br/>value = 76.32>, fillcolor="#eca46f"] ;
664 -> 665 ;
666 [label=<X<SUB>3</SUB> &le; -0.006<br/>squared_error = 34.24<br/>samples = 5<br/>value = 66.4>, fillcolor="#efb388"] ;
665 -> 666 ;
667 [label=<squared_error = 0.0<br/>samples = 1<br/>value = 56.0>, fillcolor="#f3c4a2"] ;
666 -> 667 ;
668 [label=<X<SUB>4</SUB> &le; -0.106<br/>squared_error = 9.0<br/>samples = 4<br/>value = 69.0>, fillcolor="#efaf82"] ;
666 -> 668 ;
669 [label=<squared_error = 0.0<br/>samples = 2<br/>value = 66.0>, fillcolor="#f0b489"] ;
668 -> 669 ;
670 [label=<squared_error = 0.0<br/>samples = 2<br/>value = 72.0>, fillcolor="#eeaa7a"] ;
668 -> 670 ;
671 [label=<X<SUB>2</SUB> &le; -0.107<br/>squared_error = 14.36<br/>samples = 20<br/>value = 78.8>, fillcolor="#eba069"] ;
665 -> 671 ;
672 [label=<X<SUB>1</SUB> &le; 0.612<br/>squared_error = 6.777<br/>samples = 16<br/>value = 80.188>, fillcolor="#eb9d66"] ;
671 -> 672 ;
673 [label=<X<SUB>2</SUB> &le; -0.121<br/>squared_error = 5.316<br/>samples = 15<br/>value = 80.533>, fillcolor="#eb9d65"] ;
672 -> 673 ;
674 [label=<X<SUB>4</SUB> &le; -0.111<br/>squared_error = 4.776<br/>samples = 14<br/>value = 80.286>, fillcolor="#eb9d65"] ;
673 -> 674 ;
675 [label=<X<SUB>1</SUB> &le; -0.391<br/>squared_error = 2.556<br/>samples = 6<br/>value = 81.333>, fillcolor="#ea9c63"] ;
674 -> 675 ;
676 [label=<X<SUB>1</SUB> &le; -0.641<br/>squared_error = 1.188<br/>samples = 4<br/>value = 82.25>, fillcolor="#ea9a60"] ;
675 -> 676 ;
677 [label=<X<SUB>4</SUB> &le; -0.138<br/>squared_error = 0.25<br/>samples = 2<br/>value = 81.5>, fillcolor="#ea9b62"] ;
676 -> 677 ;
678 [label=<squared_error = 0.0<br/>samples = 1<br/>value = 82.0>, fillcolor="#ea9b61"] ;
677 -> 678 ;
679 [label=<squared_error = 0.0<br/>samples = 1<br/>value = 81.0>, fillcolor="#eb9c64"] ;
677 -> 679 ;
680 [label=<X<SUB>4</SUB> &le; -0.185<br/>squared_error = 1.0<br/>samples = 2<br/>value = 83.0>, fillcolor="#ea995f"] ;
676 -> 680 ;
681 [label=<squared_error = 0.0<br/>samples = 1<br/>value = 82.0>, fillcolor="#ea9b61"] ;
680 -> 681 ;
682 [label=<squared_error = 0.0<br/>samples = 1<br/>value = 84.0>, fillcolor="#ea975c"] ;
680 -> 682 ;
683 [label=<X<SUB>3</SUB> &le; -0.196<br/>squared_error = 0.25<br/>samples = 2<br/>value = 79.5>, fillcolor="#eb9f67"] ;
675 -> 683 ;
684 [label=<squared_error = 0.0<br/>samples = 1<br/>value = 80.0>, fillcolor="#eb9e66"] ;
683 -> 684 ;
685 [label=<squared_error = 0.0<br/>samples = 1<br/>value = 79.0>, fillcolor="#eb9f69"] ;
683 -> 685 ;
686 [label=<X<SUB>4</SUB> &le; -0.1<br/>squared_error = 5.0<br/>samples = 8<br/>value = 79.5>, fillcolor="#eb9f67"] ;
674 -> 686 ;
687 [label=<squared_error = 0.0<br/>samples = 1<br/>value = 74.0>, fillcolor="#eda775"] ;
686 -> 687 ;
688 [label=<X<SUB>2</SUB> &le; -0.133<br/>squared_error = 0.776<br/>samples = 7<br/>value = 80.286>, fillcolor="#eb9d65"] ;
686 -> 688 ;
689 [label=<X<SUB>2</SUB> &le; -0.21<br/>squared_error = 0.16<br/>samples = 5<br/>value = 79.8>, fillcolor="#eb9e67"] ;
688 -> 689 ;
690 [label=<squared_error = 0.0<br/>samples = 1<br/>value = 79.0>, fillcolor="#eb9f69"] ;
689 -> 690 ;
691 [label=<squared_error = 0.0<br/>samples = 4<br/>value = 80.0>, fillcolor="#eb9e66"] ;
689 -> 691 ;
692 [label=<X<SUB>2</SUB> &le; -0.127<br/>squared_error = 0.25<br/>samples = 2<br/>value = 81.5>, fillcolor="#ea9b62"] ;
688 -> 692 ;
693 [label=<squared_error = 0.0<br/>samples = 1<br/>value = 82.0>, fillcolor="#ea9b61"] ;
692 -> 693 ;
694 [label=<squared_error = 0.0<br/>samples = 1<br/>value = 81.0>, fillcolor="#eb9c64"] ;
692 -> 694 ;
695 [label=<squared_error = 0.0<br/>samples = 1<br/>value = 84.0>, fillcolor="#ea975c"] ;
673 -> 695 ;
696 [label=<squared_error = 0.0<br/>samples = 1<br/>value = 75.0>, fillcolor="#eda673"] ;
672 -> 696 ;
697 [label=<X<SUB>2</SUB> &le; -0.096<br/>squared_error = 6.188<br/>samples = 4<br/>value = 73.25>, fillcolor="#eda877"] ;
671 -> 697 ;
698 [label=<squared_error = 0.0<br/>samples = 1<br/>value = 69.0>, fillcolor="#efaf82"] ;
697 -> 698 ;
699 [label=<X<SUB>1</SUB> &le; -0.064<br/>squared_error = 0.222<br/>samples = 3<br/>value = 74.667>, fillcolor="#eda673"] ;
697 -> 699 ;
700 [label=<squared_error = 0.0<br/>samples = 2<br/>value = 75.0>, fillcolor="#eda673"] ;
699 -> 700 ;
701 [label=<squared_error = 0.0<br/>samples = 1<br/>value = 74.0>, fillcolor="#eda775"] ;
699 -> 701 ;
702 [label=<X<SUB>1</SUB> &le; -0.645<br/>squared_error = 118.393<br/>samples = 366<br/>value = 69.803>, fillcolor="#eeae80"] ;
664 -> 702 ;
703 [label=<X<SUB>4</SUB> &le; -0.124<br/>squared_error = 144.822<br/>samples = 57<br/>value = 65.807>, fillcolor="#f0b48a"] ;
702 -> 703 ;
704 [label=<X<SUB>4</SUB> &le; -0.158<br/>squared_error = 135.388<br/>samples = 23<br/>value = 58.217>, fillcolor="#f2c09d"] ;
703 -> 704 ;
705 [label=<X<SUB>3</SUB> &le; -0.171<br/>squared_error = 85.889<br/>samples = 6<br/>value = 69.333>, fillcolor="#eeaf81"] ;
704 -> 705 ;
706 [label=<squared_error = 0.0<br/>samples = 1<br/>value = 81.0>, fillcolor="#eb9c64"] ;
705 -> 706 ;
707 [label=<X<SUB>2</SUB> &le; -0.213<br/>squared_error = 70.4<br/>samples = 5<br/>value = 67.0>, fillcolor="#efb287"] ;
705 -> 707 ;
708 [label=<X<SUB>3</SUB> &le; -0.169<br/>squared_error = 43.0<br/>samples = 4<br/>value = 64.0>, fillcolor="#f0b78e"] ;
707 -> 708 ;
709 [label=<X<SUB>1</SUB> &le; -0.673<br/>squared_error = 36.0<br/>samples = 2<br/>value = 69.0>, fillcolor="#efaf82"] ;
708 -> 709 ;
710 [label=<squared_error = 0.0<br/>samples = 1<br/>value = 63.0>, fillcolor="#f1b991"] ;
709 -> 710 ;
711 [label=<squared_error = 0.0<br/>samples = 1<br/>value = 75.0>, fillcolor="#eda673"] ;
709 -> 711 ;
712 [label=<squared_error = 0.0<br/>samples = 2<br/>value = 59.0>, fillcolor="#f2bf9b"] ;
708 -> 712 ;
713 [label=<squared_error = 0.0<br/>samples = 1<br/>value = 79.0>, fillcolor="#eb9f69"] ;
707 -> 713 ;
714 [label=<X<SUB>4</SUB> &le; -0.141<br/>squared_error = 93.855<br/>samples = 17<br/>value = 54.294>, fillcolor="#f3c7a7"] ;
704 -> 714 ;
715 [label=<X<SUB>1</SUB> &le; -0.649<br/>squared_error = 72.996<br/>samples = 15<br/>value = 56.267>, fillcolor="#f3c4a2"] ;
714 -> 715 ;
716 [label=<X<SUB>3</SUB> &le; -0.165<br/>squared_error = 63.302<br/>samples = 13<br/>value = 57.923>, fillcolor="#f2c19d"] ;
715 -> 716 ;
717 [label=<X<SUB>2</SUB> &le; -0.21<br/>squared_error = 1.44<br/>samples = 5<br/>value = 51.6>, fillcolor="#f4cbad"] ;
716 -> 717 ;
718 [label=<X<SUB>0</SUB> &le; 20.0<br/>squared_error = 2.25<br/>samples = 2<br/>value = 52.5>, fillcolor="#f4caab"] ;
717 -> 718 ;
719 [label=<squared_error = 0.0<br/>samples = 1<br/>value = 54.0>, fillcolor="#f3c7a7"] ;
718 -> 719 ;
720 [label=<squared_error = 0.0<br/>samples = 1<br/>value = 51.0>, fillcolor="#f4ccaf"] ;
718 -> 720 ;
721 [label=<squared_error = 0.0<br/>samples = 3<br/>value = 51.0>, fillcolor="#f4ccaf"] ;
717 -> 721 ;
722 [label=<X<SUB>2</SUB> &le; -0.151<br/>squared_error = 61.359<br/>samples = 8<br/>value = 61.875>, fillcolor="#f1bb94"] ;
716 -> 722 ;
723 [label=<X<SUB>1</SUB> &le; -0.65<br/>squared_error = 61.837<br/>samples = 7<br/>value = 60.857>, fillcolor="#f1bc96"] ;
722 -> 723 ;
724 [label=<X<SUB>4</SUB> &le; -0.15<br/>squared_error = 64.806<br/>samples = 6<br/>value = 59.833>, fillcolor="#f2be99"] ;
723 -> 724 ;
725 [label=<squared_error = 77.76<br/>samples = 5<br/>value = 59.8>, fillcolor="#f2be99"] ;
724 -> 725 ;
726 [label=<squared_error = 0.0<br/>samples = 1<br/>value = 60.0>, fillcolor="#f2be98"] ;
724 -> 726 ;
727 [label=<squared_error = 0.0<br/>samples = 1<br/>value = 67.0>, fillcolor="#efb287"] ;
723 -> 727 ;
728 [label=<squared_error = 0.0<br/>samples = 1<br/>value = 69.0>, fillcolor="#efaf82"] ;
722 -> 728 ;
729 [label=<X<SUB>4</SUB> &le; -0.155<br/>squared_error = 2.25<br/>samples = 2<br/>value = 45.5>, fillcolor="#f6d5bd"] ;
715 -> 729 ;
730 [label=<squared_error = 0.0<br/>samples = 1<br/>value = 44.0>, fillcolor="#f7d7c0"] ;
729 -> 730 ;
731 [label=<squared_error = 0.0<br/>samples = 1<br/>value = 47.0>, fillcolor="#f6d2b9"] ;
729 -> 731 ;
732 [label=<X<SUB>0</SUB> &le; 20.0<br/>squared_error = 2.25<br/>samples = 2<br/>value = 39.5>, fillcolor="#f8decc"] ;
714 -> 732 ;
733 [label=<squared_error = 0.0<br/>samples = 1<br/>value = 38.0>, fillcolor="#f9e1cf"] ;
732 -> 733 ;
734 [label=<squared_error = 0.0<br/>samples = 1<br/>value = 41.0>, fillcolor="#f8dcc8"] ;
732 -> 734 ;
735 [label=<X<SUB>3</SUB> &le; -0.128<br/>squared_error = 85.879<br/>samples = 34<br/>value = 70.941>, fillcolor="#eeac7d"] ;
703 -> 735 ;
736 [label=<X<SUB>0</SUB> &le; 12.0<br/>squared_error = 16.083<br/>samples = 13<br/>value = 77.385>, fillcolor="#eca26d"] ;
735 -> 736 ;
737 [label=<X<SUB>3</SUB> &le; -0.129<br/>squared_error = 9.609<br/>samples = 8<br/>value = 75.125>, fillcolor="#eda572"] ;
736 -> 737 ;
738 [label=<X<SUB>3</SUB> &le; -0.129<br/>squared_error = 9.44<br/>samples = 5<br/>value = 76.4>, fillcolor="#eca36f"] ;
737 -> 738 ;
739 [label=<X<SUB>2</SUB> &le; -0.067<br/>squared_error = 5.188<br/>samples = 4<br/>value = 75.25>, fillcolor="#eca572"] ;
738 -> 739 ;
740 [label=<X<SUB>2</SUB> &le; -0.134<br/>squared_error = 0.667<br/>samples = 3<br/>value = 74.0>, fillcolor="#eda775"] ;
739 -> 740 ;
741 [label=<squared_error = 0.0<br/>samples = 1<br/>value = 73.0>, fillcolor="#eda978"] ;
740 -> 741 ;
742 [label=<X<SUB>4</SUB> &le; -0.073<br/>squared_error = 0.25<br/>samples = 2<br/>value = 74.5>, fillcolor="#eda674"] ;
740 -> 742 ;
743 [label=<squared_error = 0.0<br/>samples = 1<br/>value = 75.0>, fillcolor="#eda673"] ;
742 -> 743 ;
744 [label=<squared_error = 0.0<br/>samples = 1<br/>value = 74.0>, fillcolor="#eda775"] ;
742 -> 744 ;
745 [label=<squared_error = 0.0<br/>samples = 1<br/>value = 79.0>, fillcolor="#eb9f69"] ;
739 -> 745 ;
746 [label=<squared_error = 0.0<br/>samples = 1<br/>value = 81.0>, fillcolor="#eb9c64"] ;
738 -> 746 ;
747 [label=<X<SUB>2</SUB> &le; -0.163<br/>squared_error = 2.667<br/>samples = 3<br/>value = 73.0>, fillcolor="#eda978"] ;
737 -> 747 ;
748 [label=<X<SUB>1</SUB> &le; -0.829<br/>squared_error = 1.0<br/>samples = 2<br/>value = 74.0>, fillcolor="#eda775"] ;
747 -> 748 ;
749 [label=<squared_error = 0.0<br/>samples = 1<br/>value = 73.0>, fillcolor="#eda978"] ;
748 -> 749 ;
750 [label=<squared_error = 0.0<br/>samples = 1<br/>value = 75.0>, fillcolor="#eda673"] ;
748 -> 750 ;
751 [label=<squared_error = 0.0<br/>samples = 1<br/>value = 71.0>, fillcolor="#eeac7d"] ;
747 -> 751 ;
752 [label=<X<SUB>4</SUB> &le; -0.121<br/>squared_error = 5.2<br/>samples = 5<br/>value = 81.0>, fillcolor="#eb9c64"] ;
736 -> 752 ;
753 [label=<X<SUB>3</SUB> &le; -0.129<br/>squared_error = 6.0<br/>samples = 3<br/>value = 80.0>, fillcolor="#eb9e66"] ;
752 -> 753 ;
754 [label=<X<SUB>4</SUB> &le; -0.122<br/>squared_error = 2.25<br/>samples = 2<br/>value = 81.5>, fillcolor="#ea9b62"] ;
753 -> 754 ;
755 [label=<squared_error = 0.0<br/>samples = 1<br/>value = 80.0>, fillcolor="#eb9e66"] ;
754 -> 755 ;
756 [label=<squared_error = 0.0<br/>samples = 1<br/>value = 83.0>, fillcolor="#ea995f"] ;
754 -> 756 ;
757 [label=<squared_error = 0.0<br/>samples = 1<br/>value = 77.0>, fillcolor="#eca26e"] ;
753 -> 757 ;
758 [label=<X<SUB>0</SUB> &le; 27.0<br/>squared_error = 0.25<br/>samples = 2<br/>value = 82.5>, fillcolor="#ea9a60"] ;
752 -> 758 ;
759 [label=<squared_error = 0.0<br/>samples = 1<br/>value = 82.0>, fillcolor="#ea9b61"] ;
758 -> 759 ;
760 [label=<squared_error = 0.0<br/>samples = 1<br/>value = 83.0>, fillcolor="#ea995f"] ;
758 -> 760 ;
761 [label=<X<SUB>2</SUB> &le; -0.106<br/>squared_error = 87.474<br/>samples = 21<br/>value = 66.952>, fillcolor="#efb387"] ;
735 -> 761 ;
762 [label=<X<SUB>1</SUB> &le; -0.804<br/>squared_error = 67.201<br/>samples = 18<br/>value = 64.722>, fillcolor="#f0b68c"] ;
761 -> 762 ;
763 [label=<X<SUB>3</SUB> &le; -0.128<br/>squared_error = 42.734<br/>samples = 16<br/>value = 66.625>, fillcolor="#efb388"] ;
762 -> 763 ;
764 [label=<squared_error = 0.0<br/>samples = 1<br/>value = 80.0>, fillcolor="#eb9e66"] ;
763 -> 764 ;
765 [label=<X<SUB>2</SUB> &le; -0.161<br/>squared_error = 32.862<br/>samples = 15<br/>value = 65.733>, fillcolor="#f0b48a"] ;
763 -> 765 ;
766 [label=<squared_error = 0.0<br/>samples = 1<br/>value = 55.0>, fillcolor="#f3c6a5"] ;
765 -> 766 ;
767 [label=<X<SUB>2</SUB> &le; -0.161<br/>squared_error = 26.393<br/>samples = 14<br/>value = 66.5>, fillcolor="#efb388"] ;
765 -> 767 ;
768 [label=<squared_error = 0.0<br/>samples = 1<br/>value = 78.0>, fillcolor="#eca16b"] ;
767 -> 768 ;
769 [label=<X<SUB>1</SUB> &le; -0.923<br/>squared_error = 17.467<br/>samples = 13<br/>value = 65.615>, fillcolor="#f0b58a"] ;
767 -> 769 ;
770 [label=<squared_error = 0.0<br/>samples = 1<br/>value = 59.0>, fillcolor="#f2bf9b"] ;
769 -> 770 ;
771 [label=<X<SUB>1</SUB> &le; -0.851<br/>squared_error = 14.972<br/>samples = 12<br/>value = 66.167>, fillcolor="#efb489"] ;
769 -> 771 ;
772 [label=<X<SUB>1</SUB> &le; -0.869<br/>squared_error = 13.136<br/>samples = 9<br/>value = 67.444>, fillcolor="#efb286"] ;
771 -> 772 ;
773 [label=<X<SUB>2</SUB> &le; -0.126<br/>squared_error = 7.347<br/>samples = 7<br/>value = 66.286>, fillcolor="#efb488"] ;
772 -> 773 ;
774 [label=<X<SUB>1</SUB> &le; -0.878<br/>squared_error = 2.188<br/>samples = 4<br/>value = 64.75>, fillcolor="#f0b68c"] ;
773 -> 774 ;
775 [label=<X<SUB>3</SUB> &le; -0.1<br/>squared_error = 0.667<br/>samples = 3<br/>value = 64.0>, fillcolor="#f0b78e"] ;
774 -> 775 ;
776 [label=<X<SUB>2</SUB> &le; -0.133<br/>squared_error = 0.25<br/>samples = 2<br/>value = 63.5>, fillcolor="#f0b88f"] ;
775 -> 776 ;
777 [label=<squared_error = 0.0<br/>samples = 1<br/>value = 64.0>, fillcolor="#f0b78e"] ;
776 -> 777 ;
778 [label=<squared_error = 0.0<br/>samples = 1<br/>value = 63.0>, fillcolor="#f1b991"] ;
776 -> 778 ;
779 [label=<squared_error = 0.0<br/>samples = 1<br/>value = 65.0>, fillcolor="#f0b68c"] ;
775 -> 779 ;
780 [label=<squared_error = 0.0<br/>samples = 1<br/>value = 67.0>, fillcolor="#efb287"] ;
774 -> 780 ;
781 [label=<X<SUB>3</SUB> &le; -0.093<br/>squared_error = 6.889<br/>samples = 3<br/>value = 68.333>, fillcolor="#efb083"] ;
773 -> 781 ;
782 [label=<squared_error = 0.0<br/>samples = 1<br/>value = 72.0>, fillcolor="#eeaa7a"] ;
781 -> 782 ;
783 [label=<X<SUB>0</SUB> &le; 19.0<br/>squared_error = 0.25<br/>samples = 2<br/>value = 66.5>, fillcolor="#efb388"] ;
781 -> 783 ;
784 [label=<squared_error = 0.0<br/>samples = 1<br/>value = 67.0>, fillcolor="#efb287"] ;
783 -> 784 ;
785 [label=<squared_error = 0.0<br/>samples = 1<br/>value = 66.0>, fillcolor="#f0b489"] ;
783 -> 785 ;
786 [label=<X<SUB>2</SUB> &le; -0.142<br/>squared_error = 12.25<br/>samples = 2<br/>value = 71.5>, fillcolor="#eeab7b"] ;
772 -> 786 ;
787 [label=<squared_error = 0.0<br/>samples = 1<br/>value = 68.0>, fillcolor="#efb184"] ;
786 -> 787 ;
788 [label=<squared_error = 0.0<br/>samples = 1<br/>value = 75.0>, fillcolor="#eda673"] ;
786 -> 788 ;
789 [label=<X<SUB>1</SUB> &le; -0.814<br/>squared_error = 0.889<br/>samples = 3<br/>value = 62.333>, fillcolor="#f1ba92"] ;
771 -> 789 ;
790 [label=<squared_error = 0.0<br/>samples = 2<br/>value = 63.0>, fillcolor="#f1b991"] ;
789 -> 790 ;
791 [label=<squared_error = 0.0<br/>samples = 1<br/>value = 61.0>, fillcolor="#f1bc96"] ;
789 -> 791 ;
792 [label=<X<SUB>0</SUB> &le; 20.0<br/>squared_error = 2.25<br/>samples = 2<br/>value = 49.5>, fillcolor="#f5ceb3"] ;
762 -> 792 ;
793 [label=<squared_error = 0.0<br/>samples = 1<br/>value = 51.0>, fillcolor="#f4ccaf"] ;
792 -> 793 ;
794 [label=<squared_error = 0.0<br/>samples = 1<br/>value = 48.0>, fillcolor="#f5d1b6"] ;
792 -> 794 ;
795 [label=<X<SUB>2</SUB> &le; -0.0<br/>squared_error = 0.222<br/>samples = 3<br/>value = 80.333>, fillcolor="#eb9d65"] ;
761 -> 795 ;
796 [label=<squared_error = 0.0<br/>samples = 2<br/>value = 80.0>, fillcolor="#eb9e66"] ;
795 -> 796 ;
797 [label=<squared_error = 0.0<br/>samples = 1<br/>value = 81.0>, fillcolor="#eb9c64"] ;
795 -> 797 ;
798 [label=<X<SUB>2</SUB> &le; 0.109<br/>squared_error = 110.028<br/>samples = 309<br/>value = 70.54>, fillcolor="#eead7e"] ;
702 -> 798 ;
799 [label=<X<SUB>2</SUB> &le; -0.016<br/>squared_error = 109.385<br/>samples = 250<br/>value = 71.476>, fillcolor="#eeab7b"] ;
798 -> 799 ;
800 [label=<X<SUB>0</SUB> &le; 18.5<br/>squared_error = 108.4<br/>samples = 219<br/>value = 70.621>, fillcolor="#eead7e"] ;
799 -> 800 ;
801 [label=<X<SUB>0</SUB> &le; 16.0<br/>squared_error = 120.034<br/>samples = 98<br/>value = 68.194>, fillcolor="#efb184"] ;
800 -> 801 ;
802 [label=<X<SUB>1</SUB> &le; -0.455<br/>squared_error = 92.888<br/>samples = 92<br/>value = 69.261>, fillcolor="#eeaf81"] ;
801 -> 802 ;
803 [label=<X<SUB>4</SUB> &le; -0.102<br/>squared_error = 28.8<br/>samples = 10<br/>value = 77.0>, fillcolor="#eca26e"] ;
802 -> 803 ;
804 [label=<X<SUB>2</SUB> &le; -0.169<br/>squared_error = 17.062<br/>samples = 9<br/>value = 78.222>, fillcolor="#eca16b"] ;
803 -> 804 ;
805 [label=<X<SUB>3</SUB> &le; -0.131<br/>squared_error = 0.667<br/>samples = 3<br/>value = 74.0>, fillcolor="#eda775"] ;
804 -> 805 ;
806 [label=<X<SUB>1</SUB> &le; -0.592<br/>squared_error = 0.25<br/>samples = 2<br/>value = 73.5>, fillcolor="#eda876"] ;
805 -> 806 ;
807 [label=<squared_error = 0.0<br/>samples = 1<br/>value = 74.0>, fillcolor="#eda775"] ;
806 -> 807 ;
808 [label=<squared_error = 0.0<br/>samples = 1<br/>value = 73.0>, fillcolor="#eda978"] ;
806 -> 808 ;
809 [label=<squared_error = 0.0<br/>samples = 1<br/>value = 75.0>, fillcolor="#eda673"] ;
805 -> 809 ;
810 [label=<X<SUB>0</SUB> &le; 9.5<br/>squared_error = 11.889<br/>samples = 6<br/>value = 80.333>, fillcolor="#eb9d65"] ;
804 -> 810 ;
811 [label=<X<SUB>4</SUB> &le; -0.154<br/>squared_error = 8.0<br/>samples = 3<br/>value = 83.0>, fillcolor="#ea995f"] ;
810 -> 811 ;
812 [label=<squared_error = 0.0<br/>samples = 1<br/>value = 79.0>, fillcolor="#eb9f69"] ;
811 -> 812 ;
813 [label=<squared_error = 0.0<br/>samples = 2<br/>value = 85.0>, fillcolor="#e9965a"] ;
811 -> 813 ;
814 [label=<X<SUB>2</SUB> &le; -0.07<br/>squared_error = 1.556<br/>samples = 3<br/>value = 77.667>, fillcolor="#eca16c"] ;
810 -> 814 ;
815 [label=<X<SUB>3</SUB> &le; -0.161<br/>squared_error = 0.25<br/>samples = 2<br/>value = 78.5>, fillcolor="#eba06a"] ;
814 -> 815 ;
816 [label=<squared_error = 0.0<br/>samples = 1<br/>value = 79.0>, fillcolor="#eb9f69"] ;
815 -> 816 ;
817 [label=<squared_error = 0.0<br/>samples = 1<br/>value = 78.0>, fillcolor="#eca16b"] ;
815 -> 817 ;
818 [label=<squared_error = 0.0<br/>samples = 1<br/>value = 76.0>, fillcolor="#eca470"] ;
814 -> 818 ;
819 [label=<squared_error = 0.0<br/>samples = 1<br/>value = 66.0>, fillcolor="#f0b489"] ;
803 -> 819 ;
820 [label=<X<SUB>1</SUB> &le; -0.445<br/>squared_error = 92.509<br/>samples = 82<br/>value = 68.317>, fillcolor="#efb083"] ;
802 -> 820 ;
821 [label=<squared_error = 0.0<br/>samples = 1<br/>value = 39.0>, fillcolor="#f8dfcd"] ;
820 -> 821 ;
822 [label=<X<SUB>4</SUB> &le; -0.165<br/>squared_error = 82.909<br/>samples = 81<br/>value = 68.679>, fillcolor="#efb082"] ;
820 -> 822 ;
823 [label=<X<SUB>4</SUB> &le; -0.314<br/>squared_error = 60.914<br/>samples = 54<br/>value = 70.556>, fillcolor="#eead7e"] ;
822 -> 823 ;
824 [label=<X<SUB>2</SUB> &le; -0.044<br/>squared_error = 64.25<br/>samples = 4<br/>value = 59.5>, fillcolor="#f2be99"] ;
823 -> 824 ;
825 [label=<squared_error = 0.0<br/>samples = 1<br/>value = 51.0>, fillcolor="#f4ccaf"] ;
824 -> 825 ;
826 [label=<X<SUB>3</SUB> &le; -0.259<br/>squared_error = 53.556<br/>samples = 3<br/>value = 62.333>, fillcolor="#f1ba92"] ;
824 -> 826 ;
827 [label=<X<SUB>2</SUB> &le; -0.043<br/>squared_error = 0.25<br/>samples = 2<br/>value = 67.5>, fillcolor="#efb285"] ;
826 -> 827 ;
828 [label=<squared_error = 0.0<br/>samples = 1<br/>value = 68.0>, fillcolor="#efb184"] ;
827 -> 828 ;
829 [label=<squared_error = 0.0<br/>samples = 1<br/>value = 67.0>, fillcolor="#efb287"] ;
827 -> 829 ;
830 [label=<squared_error = 0.0<br/>samples = 1<br/>value = 52.0>, fillcolor="#f4caac"] ;
826 -> 830 ;
831 [label=<X<SUB>3</SUB> &le; -0.093<br/>squared_error = 50.086<br/>samples = 50<br/>value = 71.44>, fillcolor="#eeab7c"] ;
823 -> 831 ;
832 [label=<X<SUB>3</SUB> &le; -0.287<br/>squared_error = 44.193<br/>samples = 48<br/>value = 70.875>, fillcolor="#eeac7d"] ;
831 -> 832 ;
833 [label=<X<SUB>2</SUB> &le; -0.115<br/>squared_error = 73.84<br/>samples = 5<br/>value = 63.4>, fillcolor="#f0b890"] ;
832 -> 833 ;
834 [label=<squared_error = 0.0<br/>samples = 1<br/>value = 79.0>, fillcolor="#eb9f69"] ;
833 -> 834 ;
835 [label=<X<SUB>4</SUB> &le; -0.184<br/>squared_error = 16.25<br/>samples = 4<br/>value = 59.5>, fillcolor="#f2be99"] ;
833 -> 835 ;
